{"learner":{"attributes":{"scikit_learn":"{\"_estimator_type\": \"classifier\"}"},"feature_names":["diff_avg_acs","diff_avg_kills","diff_avg_deaths","diff_avg_assists","diff_avg_kd_ratio","diff_avg_adr","diff_avg_kast","diff_avg_hs_pct","diff_avg_first_kills","diff_avg_first_deaths","diff_avg_rating","diff_role_balance","diff_map_wr","map_enc"],"feature_types":["float","float","float","float","float","float","float","float","float","float","float","int","float","int"],"gradient_booster":{"model":{"cats":{"enc":[],"feature_segments":[],"sorted_idx":[]},"gbtree_model_param":{"num_parallel_tree":"1","num_trees":"300"},"iteration_indptr":[0,1,2,3,4,5,6,7,8,9,10,11,12,13,14,15,16,17,18,19,20,21,22,23,24,25,26,27,28,29,30,31,32,33,34,35,36,37,38,39,40,41,42,43,44,45,46,47,48,49,50,51,52,53,54,55,56,57,58,59,60,61,62,63,64,65,66,67,68,69,70,71,72,73,74,75,76,77,78,79,80,81,82,83,84,85,86,87,88,89,90,91,92,93,94,95,96,97,98,99,100,101,102,103,104,105,106,107,108,109,110,111,112,113,114,115,116,117,118,119,120,121,122,123,124,125,126,127,128,129,130,131,132,133,134,135,136,137,138,139,140,141,142,143,144,145,146,147,148,149,150,151,152,153,154,155,156,157,158,159,160,161,162,163,164,165,166,167,168,169,170,171,172,173,174,175,176,177,178,179,180,181,182,183,184,185,186,187,188,189,190,191,192,193,194,195,196,197,198,199,200,201,202,203,204,205,206,207,208,209,210,211,212,213,214,215,216,217,218,219,220,221,222,223,224,225,226,227,228,229,230,231,232,233,234,235,236,237,238,239,240,241,242,243,244,245,246,247,248,249,250,251,252,253,254,255,256,257,258,259,260,261,262,263,264,265,266,267,268,269,270,271,272,273,274,275,276,277,278,279,280,281,282,283,284,285,286,287,288,289,290,291,292,293,294,295,296,297,298,299,300],"tree_info":[0,0,0,0,0,0,0,0,0,0,0,0,0,0,0,0,0,0,0,0,0,0,0,0,0,0,0,0,0,0,0,0,0,0,0,0,0,0,0,0,0,0,0,0,0,0,0,0,0,0,0,0,0,0,0,0,0,0,0,0,0,0,0,0,0,0,0,0,0,0,0,0,0,0,0,0,0,0,0,0,0,0,0,0,0,0,0,0,0,0,0,0,0,0,0,0,0,0,0,0,0,0,0,0,0,0,0,0,0,0,0,0,0,0,0,0,0,0,0,0,0,0,0,0,0,0,0,0,0,0,0,0,0,0,0,0,0,0,0,0,0,0,0,0,0,0,0,0,0,0,0,0,0,0,0,0,0,0,0,0,0,0,0,0,0,0,0,0,0,0,0,0,0,0,0,0,0,0,0,0,0,0,0,0,0,0,0,0,0,0,0,0,0,0,0,0,0,0,0,0,0,0,0,0,0,0,0,0,0,0,0,0,0,0,0,0,0,0,0,0,0,0,0,0,0,0,0,0,0,0,0,0,0,0,0,0,0,0,0,0,0,0,0,0,0,0,0,0,0,0,0,0,0,0,0,0,0,0,0,0,0,0,0,0,0,0,0,0,0,0,0,0,0,0,0,0,0,0,0,0,0,0,0,0,0,0,0,0,0,0,0,0,0,0,0,0,0,0,0,0],"trees":[{"base_weights":[-2.6403759E-2,-1.0236554E0,7.190454E-1,-1.3935384E0,-4.5526177E-1,2.9566815E-2,1.0543503E0,-2.7657175E-1,-1.5648767E0,-9.219561E-1,1.08426176E-1,-1.6676718E-1,7.1011853E-1,1.3957573E0,6.0945964E-1,1.8168384E-1,-7.232039E-1,-1.6519661E0,1.7752154E-3,3.2701325E-2,-1.1691909E0,-4.435485E-1,8.925357E-1,9.2051595E-2,-9.0560466E-1,1.1461713E0,-3.287323E-2,1.4458704E0,1.723827E-2,1.044633E0,2.7188294E-2,2.192775E-2,-5.734625E-3,-6.0557574E-2,-5.734625E-3,-5.734625E-3,-8.631964E-2,2.192775E-2,-6.912765E-2,3.5018E-2,-3.561858E-2,-6.146396E-3,7.260956E-2,-3.6160197E-2,1.2940585E-2,1.4929685E-2,-6.1470278E-2,6.6120096E-2,1.4929685E-2,5.7163853E-2,8.139753E-2,-1.46062365E-2,5.94441E-2,5.6020845E-2,-3.478408E-2],"categories":[],"categories_nodes":[],"categories_segments":[],"categories_sizes":[],"default_left":[0,0,0,0,0,0,0,0,0,0,0,0,0,0,0,0,0,0,0,0,0,0,0,0,0,0,0,0,0,0,0,0,0,0,0,0,0,0,0,0,0,0,0,0,0,0,0,0,0,0,0,0,0,0,0],"id":0,"left_children":[1,3,5,7,9,11,13,15,17,19,21,23,25,27,29,31,33,35,-1,-1,37,39,41,43,45,47,-1,49,-1,51,53,-1,-1,-1,-1,-1,-1,-1,-1,-1,-1,-1,-1,-1,-1,-1,-1,-1,-1,-1,-1,-1,-1,-1,-1],"loss_changes":[1.4667178E2,1.7106499E1,2.6075188E1,9.257431E0,9.241878E0,5.192746E0,1.0684814E1,1.7582703E0,6.1472855E0,8.2131E0,7.595479E0,5.8743916E0,5.937665E0,1.7239151E0,8.777088E0,4.0982714E-1,1.1159368E0,4.5446167E0,0E0,0E0,6.3976574E0,3.706356E0,4.2727346E0,3.359634E0,3.466456E0,6.4415455E-1,0E0,3.4057617E-1,0E0,4.1769733E0,1.3336788E1,0E0,0E0,0E0,0E0,0E0,0E0,0E0,0E0,0E0,0E0,0E0,0E0,0E0,0E0,0E0,0E0,0E0,0E0,0E0,0E0,0E0,0E0,0E0,0E0],"parents":[2147483647,0,0,1,1,2,2,3,3,4,4,5,5,6,6,7,7,8,8,9,9,10,10,11,11,12,12,13,13,14,14,15,15,16,16,17,17,20,20,21,21,22,22,23,23,24,24,25,25,27,27,29,29,30,30],"right_children":[2,4,6,8,10,12,14,16,18,20,22,24,26,28,30,32,34,36,-1,-1,38,40,42,44,46,48,-1,50,-1,52,54,-1,-1,-1,-1,-1,-1,-1,-1,-1,-1,-1,-1,-1,-1,-1,-1,-1,-1,-1,-1,-1,-1,-1,-1],"split_conditions":[-9.846154E-3,-2.3511112E-1,2.3761904E-1,-1.1538461E0,5E0,3.0833333E0,-5.027972E0,2E0,1.7181818E0,-6.75E-1,3.6363637E-1,5.8035713E-1,2.014394E-1,1.2E0,1.6666666E0,6.666667E-2,-1.1857142E1,-2.25E0,1.7752154E-3,3.2701325E-2,-1.4117647E0,-4.2828283E0,5.714286E-1,-3.3846154E0,-4.7777778E-1,8.923077E-1,-3.287323E-2,-7.216783E0,1.723827E-2,-1.1904762E0,1.505641E1,2.192775E-2,-5.734625E-3,-6.0557574E-2,-5.734625E-3,-5.734625E-3,-8.631964E-2,2.192775E-2,-6.912765E-2,3.5018E-2,-3.561858E-2,-6.146396E-3,7.260956E-2,-3.6160197E-2,1.2940585E-2,1.4929685E-2,-6.1470278E-2,6.6120096E-2,1.4929685E-2,5.7163853E-2,8.139753E-2,-1.46062365E-2,5.94441E-2,5.6020845E-2,-3.478408E-2],"split_indices":[4,4,4,2,13,3,2,13,8,12,9,2,4,12,8,12,1,12,0,0,2,6,3,1,12,9,0,2,0,3,5,0,0,0,0,0,0,0,0,0,0,0,0,0,0,0,0,0,0,0,0,0,0,0,0],"split_type":[0,0,0,0,0,0,0,0,0,0,0,0,0,0,0,0,0,0,0,0,0,0,0,0,0,0,0,0,0,0,0,0,0,0,0,0,0,0,0,0,0,0,0,0,0,0,0,0,0,0,0,0,0,0,0],"sum_hessian":[1.9530838E2,8.3384514E1,1.1192386E2,4.963364E1,3.3750874E1,3.6977062E1,7.49468E1,6.9487095E0,4.268493E1,1.8116278E1,1.5634597E1,2.9283848E1,7.6932144E0,4.1195923E1,3.3750874E1,3.722523E0,3.2261865E0,4.0451416E1,2.2335138E0,2.2335138E0,1.5882765E1,9.430391E0,6.204205E0,2.2335138E1,6.9487095E0,5.9560366E0,1.7371774E0,3.8962406E1,2.2335138E0,1.8860783E1,1.4890092E1,1.7371774E0,1.9853456E0,1.240841E0,1.9853456E0,1.9853456E0,3.8466072E1,1.7371774E0,1.4145587E1,1.4890091E0,7.9413824E0,2.481682E0,3.722523E0,3.2261865E0,1.9108952E1,1.4890091E0,5.4597006E0,4.4670277E0,1.4890091E0,1.7371775E1,2.1590633E1,1.7371774E0,1.7123606E1,5.7078686E0,9.182223E0],"tree_param":{"num_deleted":"0","num_feature":"14","num_nodes":"55","size_leaf_vector":"1"}},{"base_weights":[-5.6418628E-2,-9.501624E-1,7.566915E-1,-1.6677579E0,-6.61862E-1,3.7215948E-1,1.1679245E0,-9.592347E-1,-9.390578E-2,-7.438102E-2,-9.3886703E-1,-4.9773294E-2,6.121067E-1,1.5308757E0,7.104177E-1,-7.0335194E-2,-2.980307E-1,-3.0974236E-1,8.377506E-1,1.5869585E-1,-1.1462599E0,4.3664017E-1,-8.402623E-1,1.2096776E0,1.6857761E-1,7.9840854E-2,5.2101663E-3,1.1509936E0,3.354782E-1,-2.021849E-2,-2.560202E-3,4.7059744E-3,-2.9056666E-2,5.24771E-2,5.5682603E-3,-2.4203023E-2,5.3069573E-2,-1.0625961E-2,-7.1968146E-2,2.9999623E-2,-2.6125519E-2,-5.61876E-2,1.3231124E-2,1.9850077E-2,7.256713E-2,1.6282419E-2,-4.9943242E-2,9.152832E-3,6.781944E-2,3.8615722E-2,-2.4731442E-2],"categories":[],"categories_nodes":[],"categories_segments":[],"categories_sizes":[],"default_left":[0,0,0,0,0,0,0,0,0,0,0,0,0,0,0,0,0,0,0,0,0,0,0,0,0,0,0,0,0,0,0,0,0,0,0,0,0,0,0,0,0,0,0,0,0,0,0,0,0,0,0],"id":1,"left_children":[1,3,5,7,9,11,13,15,-1,17,19,21,23,25,27,-1,29,31,33,35,37,39,41,43,45,-1,-1,47,49,-1,-1,-1,-1,-1,-1,-1,-1,-1,-1,-1,-1,-1,-1,-1,-1,-1,-1,-1,-1,-1,-1],"loss_changes":[1.416447E2,1.8099876E1,1.5710403E1,2.0655746E0,1.0976236E1,5.520776E0,7.027199E0,1.9429026E0,0E0,5.1619067E0,1.0662235E1,8.281679E0,8.978494E0,2.3157654E0,3.493205E0,0E0,9.7174585E-2,2.1242585E0,6.4521694E-1,5.2690134E0,1.0325577E1,2.4131906E0,2.8605433E0,2.2907352E0,4.184817E0,0E0,0E0,1.8164749E0,5.4944277E0,0E0,0E0,0E0,0E0,0E0,0E0,0E0,0E0,0E0,0E0,0E0,0E0,0E0,0E0,0E0,0E0,0E0,0E0,0E0,0E0,0E0,0E0],"parents":[2147483647,0,0,1,1,2,2,3,3,4,4,5,5,6,6,7,7,9,9,10,10,11,11,12,12,13,13,14,14,16,16,17,17,18,18,19,19,20,20,21,21,22,22,23,23,24,24,27,27,28,28],"right_children":[2,4,6,8,10,12,14,16,-1,18,20,22,24,26,28,-1,30,32,34,36,38,40,42,44,46,-1,-1,48,50,-1,-1,-1,-1,-1,-1,-1,-1,-1,-1,-1,-1,-1,-1,-1,-1,-1,-1,-1,-1,-1,-1],"split_conditions":[3.7045453E-2,-2.425E-1,2.3363636E-1,1E0,2.761905E-1,2E0,2.7552447E0,6.5E0,-9.390578E-2,9.292929E-1,-8E-1,1.8928571E-1,-3.2727273E0,1.1904762E0,-1.5E-1,-7.0335194E-2,2.3809524E-2,-3.2142857E-1,-3.4238095E0,-9.076923E0,-4.922727E0,2E1,-7.4825174E-1,5.0614033E0,6.064935E0,7.9840854E-2,5.2101663E-3,-1.0210526E1,1.6666666E0,-2.021849E-2,-2.560202E-3,4.7059744E-3,-2.9056666E-2,5.24771E-2,5.5682603E-3,-2.4203023E-2,5.3069573E-2,-1.0625961E-2,-7.1968146E-2,2.9999623E-2,-2.6125519E-2,-5.61876E-2,1.3231124E-2,1.9850077E-2,7.256713E-2,1.6282419E-2,-4.9943242E-2,9.152832E-3,6.781944E-2,3.8615722E-2,-2.4731442E-2],"split_indices":[10,10,10,13,2,13,7,2,0,1,12,10,2,12,12,0,12,12,2,0,7,0,9,6,7,0,0,2,8,0,0,0,0,0,0,0,0,0,0,0,0,0,0,0,0,0,0,0,0,0,0],"split_type":[0,0,0,0,0,0,0,0,0,0,0,0,0,0,0,0,0,0,0,0,0,0,0,0,0,0,0,0,0,0,0,0,0,0,0,0,0,0,0,0,0,0,0,0,0,0,0,0,0,0,0],"sum_hessian":[1.9292233E2,9.1823944E1,1.010984E2,2.494634E1,6.68776E1,5.3229774E1,4.786862E1,6.9837613E0,1.796258E1,2.1835886E1,4.5041718E1,1.9584381E1,3.3645393E1,2.5384424E1,2.2484198E1,3.4926355E0,3.4911258E0,1.7882107E1,3.9537795E0,7.195668E0,3.7846046E1,1.2401172E1,7.18321E0,1.3597696E1,2.0047695E1,2.414899E1,1.2354345E0,9.385672E0,1.3098526E1,1.993851E0,1.4972749E0,7.449526E0,1.0432581E1,2.7167706E0,1.2370088E0,4.4738584E0,2.7218096E0,9.453863E0,2.8392185E1,1.0916452E1,1.4847195E0,5.7028933E0,1.4803164E0,3.72247E0,9.875226E0,1.830584E1,1.7418572E0,1.9740559E0,7.4116163E0,8.6278305E0,4.470696E0],"tree_param":{"num_deleted":"0","num_feature":"14","num_nodes":"51","size_leaf_vector":"1"}},{"base_weights":[-5.4836827E-3,-7.721967E-1,9.43861E-1,-1.3140582E0,-3.3785358E-1,5.785562E-1,1.2437854E0,-1.1335045E-1,-1.4931952E0,8.752898E-1,-4.8499787E-1,1.1331826E0,6.3187696E-2,1.3106625E0,-3.5782937E-2,-3.627465E-2,1.2581328E-1,-1.1895105E-2,-1.5568253E0,1.0260098E0,3.9960532E-3,-6.170431E-1,2.2354339E-1,4.3041462E-1,1.4617333E0,8.892823E-1,-2.4155007E-1,1.1359113E-2,1.3404287E0,-2.2991879E-2,2.041362E-2,-8.0337174E-2,-1.41297E-2,1.7453833E-2,6.690224E-2,-1.1889995E-2,-4.04476E-2,-8.3167525E-3,4.863145E-2,4.104696E-2,-8.265355E-3,7.931447E-2,2.4188282E-2,5.1843762E-2,1.1662428E-2,-2.4285076E-2,3.2638207E-2,7.151788E-2,4.1886333E-2],"categories":[],"categories_nodes":[],"categories_segments":[],"categories_sizes":[],"default_left":[0,0,0,0,0,0,0,0,0,0,0,0,0,0,0,0,0,0,0,0,0,0,0,0,0,0,0,0,0,0,0,0,0,0,0,0,0,0,0,0,0,0,0,0,0,0,0,0,0],"id":2,"left_children":[1,3,5,7,9,11,13,15,17,19,21,23,25,27,-1,-1,29,-1,31,33,-1,35,37,39,41,43,45,-1,47,-1,-1,-1,-1,-1,-1,-1,-1,-1,-1,-1,-1,-1,-1,-1,-1,-1,-1,-1,-1],"loss_changes":[1.4647102E2,2.5755531E1,9.131287E0,1.0409645E1,1.1694775E1,1.2049728E1,7.2940063E0,1.1845112E0,3.0415573E0,7.794523E-1,5.46616E0,4.073309E0,6.0150023E0,1.2195358E0,0E0,0E0,1.2169461E0,0E0,2.1204453E0,7.9115534E-1,0E0,3.3207245E0,2.988904E0,1.9748701E0,8.72282E-1,3.8001585E-1,4.163843E0,0E0,8.71727E-1,0E0,0E0,0E0,0E0,0E0,0E0,0E0,0E0,0E0,0E0,0E0,0E0,0E0,0E0,0E0,0E0,0E0,0E0,0E0,0E0],"parents":[2147483647,0,0,1,1,2,2,3,3,4,4,5,5,6,6,7,7,8,8,9,9,10,10,11,11,12,12,13,13,16,16,18,18,19,19,21,21,22,22,23,23,24,24,25,25,26,26,28,28],"right_children":[2,4,6,8,10,12,14,16,18,20,22,24,26,28,-1,-1,30,-1,32,34,-1,36,38,40,42,44,46,-1,48,-1,-1,-1,-1,-1,-1,-1,-1,-1,-1,-1,-1,-1,-1,-1,-1,-1,-1,-1,-1],"split_conditions":[2.0482142E-1,-2.3511112E-1,3.693007E-1,-4.7179487E-1,-5.8102565E0,6.8686867E-1,7.2539682E0,-1.3566177E0,-2.25E0,4.3846154E0,4.6319447E0,2.7347222E-1,-1.15384616E-1,-5.1282052E-2,-3.5782937E-2,-3.627465E-2,-5.5244756E0,-1.1895105E-2,1.3717948E0,-1.1363637E-1,3.9960532E-3,-6.168831E-1,-9.625E-1,5.8117647E0,2.375238E1,-1.7538462E0,-1.3071896E0,1.1359113E-2,5.604575E0,-2.2991879E-2,2.041362E-2,-8.0337174E-2,-1.41297E-2,1.7453833E-2,6.690224E-2,-1.1889995E-2,-4.04476E-2,-8.3167525E-3,4.863145E-2,4.104696E-2,-8.265355E-3,7.931447E-2,2.4188282E-2,5.1843762E-2,1.1662428E-2,-2.4285076E-2,3.2638207E-2,7.151788E-2,4.1886333E-2],"split_indices":[4,4,4,2,7,8,3,9,12,3,3,4,12,1,0,0,3,0,8,4,0,2,5,5,0,2,2,0,7,0,0,0,0,0,0,0,0,0,0,0,0,0,0,0,0,0,0,0,0],"split_type":[0,0,0,0,0,0,0,0,0,0,0,0,0,0,0,0,0,0,0,0,0,0,0,0,0,0,0,0,0,0,0,0,0,0,0,0,0,0,0,0,0,0,0,0,0,0,0,0,0],"sum_hessian":[1.9922969E2,1.10319595E2,8.891009E1,4.8183388E1,6.213621E1,4.1406452E1,4.750364E1,6.467332E0,4.1716057E1,6.186075E0,5.5950134E1,1.936623E1,2.2040222E1,4.6255993E1,1.2476435E0,1.2456411E0,5.221691E0,2.2411718E0,3.9474884E1,4.956797E0,1.2292781E0,4.7269947E1,8.680189E0,6.905484E0,1.2460746E1,5.4225044E0,1.6617718E1,1.4676137E0,4.478838E1,1.4946675E0,3.7270234E0,3.7735634E1,1.7392479E0,2.2324338E0,2.7243633E0,1.6635206E1,3.063474E1,6.2205257E0,2.4596634E0,3.942757E0,2.9627273E0,1.0501258E1,1.9594884E0,3.952711E0,1.4697936E0,1.3412854E1,3.2048635E0,3.6426643E1,8.361737E0],"tree_param":{"num_deleted":"0","num_feature":"14","num_nodes":"49","size_leaf_vector":"1"}},{"base_weights":[-1.8602528E-2,-1.0431385E0,5.9079814E-1,-1.295827E0,-4.4955206E-1,2.7716607E-1,1.0561996E0,-2.3158869E-1,-1.4940603E0,-1.0266564E0,3.1141818E-1,4.9087143E-1,-7.3826954E-2,2.72353E-1,1.2913592E0,3.0585954E-1,-5.947243E-1,-1.7204536E-2,-1.554557E0,-1.4649811E0,3.2347447E-1,-5.164548E-1,1.0606778E0,-1.3150093E-1,6.356277E-1,-7.798283E-1,1.5125568E-1,9.011504E-1,-4.0489322E-1,2.805984E-1,1.3658944E0,2.6892556E-2,-4.724979E-3,-4.5523476E-2,5.480477E-3,-7.927411E-2,-2.6966823E-2,-9.444413E-3,-8.065231E-2,-1.6560686E-4,3.079388E-2,1.4946495E-2,-4.9892813E-2,7.2771505E-2,-1.4211535E-2,2.7574798E-2,-1.8541103E-2,1.5244943E-2,4.1441794E-2,-5.4834615E-2,1.4738965E-2,3.6549605E-2,-1.0556757E-2,5.0885517E-2,1.677656E-2,1.9356297E-2,-3.6943167E-2,4.7655333E-2,-1.86716E-2,7.006964E-2,2.486563E-2],"categories":[],"categories_nodes":[],"categories_segments":[],"categories_sizes":[],"default_left":[0,0,0,0,0,0,0,0,0,0,0,0,0,0,0,0,0,0,0,0,0,0,0,0,0,0,0,0,0,0,0,0,0,0,0,0,0,0,0,0,0,0,0,0,0,0,0,0,0,0,0,0,0,0,0,0,0,0,0,0,0],"id":3,"left_children":[1,3,5,7,9,11,13,15,17,19,21,23,25,27,29,31,33,-1,35,37,39,41,43,45,47,49,51,53,55,57,59,-1,-1,-1,-1,-1,-1,-1,-1,-1,-1,-1,-1,-1,-1,-1,-1,-1,-1,-1,-1,-1,-1,-1,-1,-1,-1,-1,-1,-1,-1],"loss_changes":[1.2692684E2,1.0789093E1,1.8316555E1,1.0760582E1,1.0933611E1,5.8509746E0,9.043777E0,2.02621E0,2.5397873E0,8.745759E0,7.489526E0,4.436322E0,4.917981E0,5.913739E0,2.5504532E0,4.6607387E-1,1.4294937E0,0E0,4.5419312E-1,1.7232132E0,4.076484E-1,2.6491985E0,3.7063112E0,1.8301405E0,2.2629366E0,2.8650045E0,5.142246E0,1.2442589E-1,2.1279128E0,2.0857794E0,4.1332245E-1,0E0,0E0,0E0,0E0,0E0,0E0,0E0,0E0,0E0,0E0,0E0,0E0,0E0,0E0,0E0,0E0,0E0,0E0,0E0,0E0,0E0,0E0,0E0,0E0,0E0,0E0,0E0,0E0,0E0,0E0],"parents":[2147483647,0,0,1,1,2,2,3,3,4,4,5,5,6,6,7,7,8,8,9,9,10,10,11,11,12,12,13,13,14,14,15,15,16,16,18,18,19,19,20,20,21,21,22,22,23,23,24,24,25,25,26,26,27,27,28,28,29,29,30,30],"right_children":[2,4,6,8,10,12,14,16,18,20,22,24,26,28,30,32,34,-1,36,38,40,42,44,46,48,50,52,54,56,58,60,-1,-1,-1,-1,-1,-1,-1,-1,-1,-1,-1,-1,-1,-1,-1,-1,-1,-1,-1,-1,-1,-1,-1,-1,-1,-1,-1,-1,-1,-1],"split_conditions":[-8.326923E-2,1.14285715E-1,2.382906E-1,-4.7179487E-1,5E0,8.606061E-1,3.4475524E0,2E0,-1.75E0,-1.7348485E0,-2.1323529E-1,-2.75E0,4.0923076E0,3.2192514E0,-1.0210526E1,6.666667E-2,-1.4117647E0,-1.7204536E-2,3.75E-1,-3.0841026E1,-7.291667E-1,5.2380955E-1,-1.4379166E-1,-1.120362E1,1.5042017E0,3.888889E-1,1.4233333E-1,3.2417583E1,-1.5E-1,1E0,1.2E0,2.6892556E-2,-4.724979E-3,-4.5523476E-2,5.480477E-3,-7.927411E-2,-2.6966823E-2,-9.444413E-3,-8.065231E-2,-1.6560686E-4,3.079388E-2,1.4946495E-2,-4.9892813E-2,7.2771505E-2,-1.4211535E-2,2.7574798E-2,-1.8541103E-2,1.5244943E-2,4.1441794E-2,-5.4834615E-2,1.4738965E-2,3.6549605E-2,-1.0556757E-2,5.0885517E-2,1.677656E-2,1.9356297E-2,-3.6943167E-2,4.7655333E-2,-1.86716E-2,7.006964E-2,2.486563E-2],"split_indices":[4,8,10,2,13,8,1,13,12,6,3,1,6,1,2,12,2,0,1,0,1,8,4,2,6,12,10,0,12,13,12,0,0,0,0,0,0,0,0,0,0,0,0,0,0,0,0,0,0,0,0,0,0,0,0,0,0,0,0,0,0],"split_type":[0,0,0,0,0,0,0,0,0,0,0,0,0,0,0,0,0,0,0,0,0,0,0,0,0,0,0,0,0,0,0,0,0,0,0,0,0,0,0,0,0,0,0,0,0,0,0,0,0,0,0,0,0,0,0,0,0,0,0,0,0],"sum_hessian":[2.0130635E2,7.4814705E1,1.26491646E2,5.164604E1,2.3168663E1,7.652041E1,4.9971237E1,8.449917E0,4.3196125E1,1.2977585E1,1.0191078E1,4.7314198E1,2.9206213E1,1.2030084E1,3.7941154E1,3.4707947E0,4.9791226E0,2.493097E0,4.0703026E1,9.732748E0,3.2448363E0,4.9891605E0,5.2019176E0,8.945413E0,3.8368786E1,6.4645786E0,2.2741634E1,6.066738E0,5.9633455E0,2.932921E0,3.5008232E1,1.9800285E0,1.4907663E0,3.2358558E0,1.7432667E0,3.8954697E1,1.7483307E0,1.2484809E0,8.484267E0,1.9992114E0,1.245625E0,1.9928193E0,2.9963412E0,3.9580026E0,1.243915E0,1.9826692E0,6.9627433E0,1.5099659E1,2.3269125E1,4.976602E0,1.4879763E0,8.356364E0,1.438527E1,4.3674345E0,1.6993039E0,1.7215292E0,4.2418165E0,1.2205775E0,1.7123435E0,3.3044308E1,1.9639258E0],"tree_param":{"num_deleted":"0","num_feature":"14","num_nodes":"61","size_leaf_vector":"1"}},{"base_weights":[-9.643033E-3,-5.8975273E-1,8.4448165E-1,-1.3795787E0,-3.3403227E-1,1.1871811E0,4.1453212E-1,-1.0813701E-2,-1.471124E0,-5.653504E-1,2.2484767E-1,1.2299657E0,1.2992774E-2,8.3754814E-1,-5.061618E-2,-1.5296613E0,-8.395072E-3,-9.04467E-1,7.4210145E-2,-3.4672115E-2,5.3193975E-2,9.492695E-1,7.494938E-2,-2.4910057E-2,1.0174948E0,7.4277854E-1,-4.752758E-1,-8.541928E-2,-5.2875645E-2,1.6046248E-2,-5.2478213E-2,-1.3704466E-2,3.1659152E-2,6.7467713E-3,-4.783981E-2,6.575577E-2,3.596551E-2,2.2006972E-2,6.352308E-2,5.9411276E-2,1.386753E-2,-4.6458535E-2,9.699775E-3],"categories":[],"categories_nodes":[],"categories_segments":[],"categories_sizes":[],"default_left":[0,0,0,0,0,0,0,0,0,0,0,0,0,0,0,0,0,0,0,0,0,0,0,0,0,0,0,0,0,0,0,0,0,0,0,0,0,0,0,0,0,0,0],"id":4,"left_children":[1,3,5,7,9,11,13,-1,15,17,19,21,-1,23,25,27,-1,29,31,33,-1,35,-1,-1,37,39,41,-1,-1,-1,-1,-1,-1,-1,-1,-1,-1,-1,-1,-1,-1,-1,-1],"loss_changes":[9.75923E1,2.322813E1,1.1246849E1,2.7027397E0,1.1751914E1,1.4180489E0,7.2978306E0,0E0,1.7361565E0,1.3922201E1,5.924325E0,1.7182503E0,0E0,5.1623707E0,6.58785E0,2.9271317E-1,0E0,7.772896E0,4.663022E0,3.5103264E0,0E0,9.960747E-1,0E0,0E0,1.9817734E0,1.0889113E0,4.027128E0,0E0,0E0,0E0,0E0,0E0,0E0,0E0,0E0,0E0,0E0,0E0,0E0,0E0,0E0,0E0,0E0],"parents":[2147483647,0,0,1,1,2,2,3,3,4,4,5,5,6,6,8,8,9,9,10,10,11,11,13,13,14,14,15,15,17,17,18,18,19,19,21,21,24,24,25,25,26,26],"right_children":[2,4,6,8,10,12,14,-1,16,18,20,22,-1,24,26,28,-1,30,32,34,-1,36,-1,-1,38,40,42,-1,-1,-1,-1,-1,-1,-1,-1,-1,-1,-1,-1,-1,-1,-1,-1],"split_conditions":[2.3761904E-1,-2.6762238E1,-5.027972E0,-1.75E0,6E0,1.2E0,1.6666666E0,-1.0813701E-2,-2.3636363E0,4.2105265E-2,5.5902777E0,2.3142858E0,1.2992774E-2,-1.1904762E0,1.505641E1,9.9607843E-1,-8.395072E-3,-1.5333333E1,2E0,2.4509804E0,5.3193975E-2,9.2469635E0,7.494938E-2,-2.4910057E-2,3.2686815E-1,4E0,1E0,-8.541928E-2,-5.2875645E-2,1.6046248E-2,-5.2478213E-2,-1.3704466E-2,3.1659152E-2,6.7467713E-3,-4.783981E-2,6.575577E-2,3.596551E-2,2.2006972E-2,6.352308E-2,5.9411276E-2,1.386753E-2,-4.6458535E-2,9.699775E-3],"split_indices":[4,0,2,12,13,12,8,0,1,10,2,3,0,3,5,9,0,5,13,1,0,5,0,0,4,13,13,0,0,0,0,0,0,0,0,0,0,0,0,0,0,0,0],"split_type":[0,0,0,0,0,0,0,0,0,0,0,0,0,0,0,0,0,0,0,0,0,0,0,0,0,0,0,0,0,0,0,0,0,0,0,0,0,0,0,0,0,0,0],"sum_hessian":[1.9495761E2,1.1628677E2,7.8670845E1,2.7366598E1,8.892017E1,4.2797264E1,3.5873585E1,2.2417858E0,2.5124813E1,6.2881992E1,2.6038181E1,4.059782E1,2.1994452E0,1.8368378E1,1.7505207E1,2.3878502E1,1.2463098E0,4.0822388E1,2.2059605E1,2.061917E1,5.419011E0,2.208403E1,1.8513788E1,1.9707601E0,1.6397617E1,5.841805E0,1.1663403E1,1.5422307E1,8.456196E0,4.1936765E0,3.662871E1,1.3904982E1,8.154624E0,1.8136894E1,2.4822748E0,6.7023125E0,1.5381719E1,5.8304586E0,1.0567158E1,2.1914556E0,3.6503496E0,6.71858E0,4.9448233E0],"tree_param":{"num_deleted":"0","num_feature":"14","num_nodes":"43","size_leaf_vector":"1"}},{"base_weights":[2.6981073E-2,-1.0300773E0,5.4664797E-1,-1.1479197E0,2.0444357E-1,2.8932896E-1,9.97778E-1,-1.1370866E-1,-1.2738563E0,3.624305E-2,-1.5091014E-2,5.41425E-1,-1.19808905E-1,1.122021E0,-3.6769234E-2,-2.9033026E-1,1.7688258E-2,-1.3252469E0,-1.591423E-2,2.3569627E-1,1.1256261E0,-2.8582692E-1,5.4597247E-2,7.586629E-1,6.442024E-2,-7.3892884E-3,-2.1451551E-2,-2.7169341E-2,-6.8425104E-2,-2.8391853E-3,3.5142045E-2,1.2781856E-2,6.331223E-2,1.4978322E-2,-2.6572479E-2,4.5155272E-2,-6.3935244E-3],"categories":[],"categories_nodes":[],"categories_segments":[],"categories_sizes":[],"default_left":[0,0,0,0,0,0,0,0,0,0,0,0,0,0,0,0,0,0,0,0,0,0,0,0,0,0,0,0,0,0,0,0,0,0,0,0,0],"id":5,"left_children":[1,3,5,7,9,11,13,15,17,-1,-1,19,21,23,-1,25,-1,27,-1,29,31,33,-1,35,-1,-1,-1,-1,-1,-1,-1,-1,-1,-1,-1,-1,-1],"loss_changes":[1.0666484E2,9.546326E0,1.4819099E1,7.4849777E0,1.9118944E0,8.757963E0,1.0916084E1,7.1840847E-1,2.1378555E0,0E0,0E0,9.081391E0,6.9410973E0,1.6901016E0,0E0,5.4459512E-2,0E0,9.185028E-1,0E0,4.9064083E0,1.8432636E0,4.440233E0,0E0,2.2015457E0,0E0,0E0,0E0,0E0,0E0,0E0,0E0,0E0,0E0,0E0,0E0,0E0,0E0],"parents":[2147483647,0,0,1,1,2,2,3,3,4,4,5,5,6,6,7,7,8,8,11,11,12,12,13,13,15,15,17,17,19,19,20,20,21,21,23,23],"right_children":[2,4,6,8,10,12,14,16,18,-1,-1,20,22,24,-1,26,-1,28,-1,30,32,34,-1,36,-1,-1,-1,-1,-1,-1,-1,-1,-1,-1,-1,-1,-1],"split_conditions":[-1.1363637E-1,4.142857E0,3.693007E-1,-1.492647E0,2.1428572E-1,8.406593E-1,7.2539682E0,-1.0261905E1,1.7181818E0,3.624305E-2,-1.5091014E-2,1.4545454E-1,2.5858586E0,-7.216783E0,-3.6769234E-2,-1.3076923E0,1.7688258E-2,-7.6363635E-1,-1.591423E-2,-2.7972028E-2,-4.8333332E-1,9.2142856E-1,5.4597247E-2,-7.4E0,6.442024E-2,-7.3892884E-3,-2.1451551E-2,-2.7169341E-2,-6.8425104E-2,-2.8391853E-3,3.5142045E-2,1.2781856E-2,6.331223E-2,1.4978322E-2,-2.6572479E-2,4.5155272E-2,-6.3935244E-3],"split_indices":[4,3,4,2,1,8,3,1,8,0,0,10,8,2,0,8,0,9,0,8,3,1,0,2,0,0,0,0,0,0,0,0,0,0,0,0,0],"split_type":[0,0,0,0,0,0,0,0,0,0,0,0,0,0,0,0,0,0,0,0,0,0,0,0,0,0,0,0,0,0,0,0,0,0,0,0,0],"sum_hessian":[1.9215172E2,6.3006836E1,1.2914488E2,5.7580578E1,5.4262567E0,8.328276E1,4.5862114E1,6.457064E0,5.1123516E1,2.4628096E0,2.9634473E0,5.133107E1,3.195169E1,4.31234E1,2.7387137E0,4.9614577E0,1.4956068E0,4.814729E1,2.9762256E0,3.461797E1,1.67131E1,2.877364E1,3.1780512E0,1.5290617E1,2.7832783E1,3.465461E0,1.4959966E0,3.23501E0,4.4912277E1,2.182915E1,1.278882E1,2.7176018E0,1.3995499E1,8.439686E0,2.0333954E1,1.3132285E1,2.1583319E0],"tree_param":{"num_deleted":"0","num_feature":"14","num_nodes":"37","size_leaf_vector":"1"}},{"base_weights":[-2.2574147E-2,-9.1831523E-1,4.9256024E-1,-1.0360107E0,1.280186E-1,-2.4736442E-2,7.806319E-1,-1.3362623E0,-8.5520726E-1,5.1672375E-1,-3.4167603E-2,5.8648396E-2,-1.0154759E-1,1.1172488E0,4.2388788E-1,-1.4042019E0,-5.9598004E-3,-3.8615102E-1,-1.0575893E0,4.821053E-2,-7.816644E-2,-4.7449246E-1,1.7708758E-1,8.036083E-1,6.580498E-2,7.184656E-1,1.5499063E-2,-2.6680468E-2,-7.477478E-2,3.1684767E-2,-3.4295972E-2,-6.485824E-2,-3.0695355E-2,2.6170969E-2,-3.1946715E-2,2.7354985E-2,-3.1575173E-2,3.4696996E-2,-5.019411E-3,4.589387E-2,5.3399378E-3,1.1221023E-2,6.319992E-2,4.303734E-2,-2.5123864E-2],"categories":[],"categories_nodes":[],"categories_segments":[],"categories_sizes":[],"default_left":[0,0,0,0,0,0,0,0,0,0,0,0,0,0,0,0,0,0,0,0,0,0,0,0,0,0,0,0,0,0,0,0,0,0,0,0,0,0,0,0,0,0,0,0,0],"id":6,"left_children":[1,3,5,7,9,11,13,15,17,19,-1,-1,21,23,25,27,-1,29,31,-1,33,35,37,39,-1,41,43,-1,-1,-1,-1,-1,-1,-1,-1,-1,-1,-1,-1,-1,-1,-1,-1,-1,-1],"loss_changes":[8.748509E1,8.656509E0,1.7961185E1,2.2407837E0,2.8410108E0,4.170221E0,8.816887E0,1.6226273E0,3.5482101E0,1.6467364E0,0E0,0E0,4.479827E0,1.3868179E0,4.7012277E0,8.2421875E-1,0E0,4.756914E0,2.2375126E0,0E0,1.5013467E0,3.2906604E0,3.6464686E0,1.3173399E0,0E0,5.8436556E0,8.066589E0,0E0,0E0,0E0,0E0,0E0,0E0,0E0,0E0,0E0,0E0,0E0,0E0,0E0,0E0,0E0,0E0,0E0,0E0],"parents":[2147483647,0,0,1,1,2,2,3,3,4,4,5,5,6,6,7,7,8,8,9,9,12,12,13,13,14,14,15,15,17,17,18,18,20,20,21,21,22,22,23,23,25,25,26,26],"right_children":[2,4,6,8,10,12,14,16,18,20,-1,-1,22,24,26,28,-1,30,32,-1,34,36,38,40,-1,42,44,-1,-1,-1,-1,-1,-1,-1,-1,-1,-1,-1,-1,-1,-1,-1,-1,-1,-1],"split_conditions":[-3.4102563E-2,3.8666666E0,2.1071795E-1,-2.56E-1,3.5E-1,-4.923077E0,-5.027972E0,8.0222225E0,-8.333333E0,7.1152883E0,-3.4167603E-2,5.8648396E-2,2.020202E-2,-7.216783E0,1.6666666E0,-1.75E0,-5.9598004E-3,-1.5555556E-1,4.5604396E-1,4.821053E-2,-9.583333E-1,-8.857142E0,7.762238E-1,-7.4E0,6.580498E-2,3.3678788E-1,1.505641E1,-2.6680468E-2,-7.477478E-2,3.1684767E-2,-3.4295972E-2,-6.485824E-2,-3.0695355E-2,2.6170969E-2,-3.1946715E-2,2.7354985E-2,-3.1575173E-2,3.4696996E-2,-5.019411E-3,4.589387E-2,5.3399378E-3,1.1221023E-2,6.319992E-2,4.303734E-2,-2.5123864E-2],"split_indices":[10,3,4,10,12,5,2,2,6,2,0,0,8,2,8,12,0,12,3,0,12,2,8,2,0,4,5,0,0,0,0,0,0,0,0,0,0,0,0,0,0,0,0,0,0],"split_type":[0,0,0,0,0,0,0,0,0,0,0,0,0,0,0,0,0,0,0,0,0,0,0,0,0,0,0,0,0,0,0,0,0,0,0,0,0,0,0,0,0,0,0,0,0],"sum_hessian":[1.8761653E2,6.821619E1,1.19400345E2,6.132769E1,6.8885007E0,4.30352E1,7.636514E1,2.064795E1,4.0679737E1,4.9028354E0,1.9856651E0,1.733542E0,4.130166E1,3.819411E1,3.8171032E1,1.9410643E1,1.2373073E0,1.3138038E1,2.75417E1,2.4437685E0,2.459067E0,1.7361238E1,2.3940418E1,1.6775675E1,2.1418436E1,2.1734385E1,1.6436647E1,2.4919508E0,1.6918692E1,2.7314355E0,1.0406602E1,1.663542E1,1.09062805E1,1.2184881E0,1.2405791E0,1.9818516E0,1.5379388E1,7.8386025E0,1.6101816E1,1.41396675E1,2.6360073E0,1.2146056E1,9.588327E0,5.9938965E0,1.0442751E1],"tree_param":{"num_deleted":"0","num_feature":"14","num_nodes":"45","size_leaf_vector":"1"}},{"base_weights":[-1.284449E-2,-8.018036E-1,5.783144E-1,-1.2738945E0,-5.795554E-1,1.3860457E-1,9.18427E-1,-7.825294E-2,-9.353428E-1,2.790622E-1,-6.792169E-1,4.4957262E-1,-4.3898374E-1,1.1371725E0,5.6404424E-1,-4.600533E-1,-7.252382E-2,6.5984315E-1,-2.5346378E-2,1.54176485E-2,-7.966516E-1,-1.1991211E-1,5.8348566E-1,-1.0707375E-1,-1.0254564E0,8.454716E-1,1.3122058E0,2.9191962E-2,1.1275843E0,-2.8684063E-2,4.936279E-4,-1.5928678E-2,5.3539064E-2,1.2032879E-2,-3.5750624E-2,5.6607346E-4,-4.933979E-2,3.8391393E-2,-2.7917981E-2,2.2911603E-2,6.1689116E-2,-1.5747622E-2,2.91953E-2,-2.1863764E-3,-6.6302896E-2,5.6010205E-2,1.961889E-2,6.730973E-2,1.940767E-2,-8.875164E-3,5.367614E-2,6.1227936E-2,2.459882E-2],"categories":[],"categories_nodes":[],"categories_segments":[],"categories_sizes":[],"default_left":[0,0,0,0,0,0,0,0,0,0,0,0,0,0,0,0,0,0,0,0,0,0,0,0,0,0,0,0,0,0,0,0,0,0,0,0,0,0,0,0,0,0,0,0,0,0,0,0,0,0,0,0,0],"id":7,"left_children":[1,3,5,7,9,11,13,-1,15,17,19,21,23,25,27,29,-1,31,-1,33,35,37,39,41,43,45,47,49,51,-1,-1,-1,-1,-1,-1,-1,-1,-1,-1,-1,-1,-1,-1,-1,-1,-1,-1,-1,-1,-1,-1,-1,-1],"loss_changes":[8.902663E1,7.8395348E0,1.6193394E1,1.03339E0,5.103115E0,8.957801E0,4.114952E0,0E0,2.809166E0,2.333926E0,4.232958E0,2.5254989E0,3.3113883E0,7.773781E-1,7.623584E0,4.782052E-1,0E0,2.325259E0,0E0,1.5644664E0,6.813513E0,3.137573E0,1.571888E0,1.9564493E0,1.7821183E0,1.6355486E0,1.4596558E-1,3.2253942E0,1.5832901E-1,0E0,0E0,0E0,0E0,0E0,0E0,0E0,0E0,0E0,0E0,0E0,0E0,0E0,0E0,0E0,0E0,0E0,0E0,0E0,0E0,0E0,0E0,0E0,0E0],"parents":[2147483647,0,0,1,1,2,2,3,3,4,4,5,5,6,6,8,8,9,9,10,10,11,11,12,12,13,13,14,14,15,15,17,17,19,19,20,20,21,21,22,22,23,23,24,24,25,25,26,26,27,27,28,28],"right_children":[2,4,6,8,10,12,14,-1,16,18,20,22,24,26,28,30,-1,32,-1,34,36,38,40,42,44,46,48,50,52,-1,-1,-1,-1,-1,-1,-1,-1,-1,-1,-1,-1,-1,-1,-1,-1,-1,-1,-1,-1,-1,-1,-1,-1],"split_conditions":[-9.846154E-3,-2.56E-1,7E0,1.1102941E0,-7.6025643E0,1.972028E0,-5.2444444E0,-7.825294E-2,1.5113636E0,-1.1712121E1,-2.2573528E0,-3.0181818E0,1.6923077E0,-7.216783E0,3.693007E-1,-3.9202797E1,-7.252382E-2,-2.5974026E-1,-2.5346378E-2,-1.520362E-2,-6.75E-1,2.2222222E-1,4E0,8.606061E-1,-6.4935066E-2,-8.03096E0,1.0666667E0,5.1428574E-1,4.0861538E1,-2.8684063E-2,4.936279E-4,-1.5928678E-2,5.3539064E-2,1.2032879E-2,-3.5750624E-2,5.6607346E-4,-4.933979E-2,3.8391393E-2,-2.7917981E-2,2.2911603E-2,6.1689116E-2,-1.5747622E-2,2.91953E-2,-2.1863764E-3,-6.6302896E-2,5.6010205E-2,1.961889E-2,6.730973E-2,1.940767E-2,-8.875164E-3,5.367614E-2,6.1227936E-2,2.459882E-2],"split_indices":[4,10,6,9,7,7,2,0,9,5,2,9,2,2,4,0,0,12,0,4,12,12,2,8,12,2,12,12,0,0,0,0,0,0,0,0,0,0,0,0,0,0,0,0,0,0,0,0,0,0,0,0,0],"split_type":[0,0,0,0,0,0,0,0,0,0,0,0,0,0,0,0,0,0,0,0,0,0,0,0,0,0,0,0,0,0,0,0,0,0,0,0,0,0,0,0,0,0,0,0,0,0,0,0,0,0,0,0,0],"sum_hessian":[1.8888614E2,8.0754745E1,1.08131386E2,2.4333857E1,5.6420887E1,4.7774418E1,6.035697E1,1.1134803E1,1.3199055E1,5.680591E0,5.0740295E1,3.1198875E1,1.657554E1,3.595475E1,2.4402222E1,7.849638E0,5.3494163E0,3.9348204E0,1.7457707E0,7.4632635E0,4.327703E1,5.9595537E0,2.5239323E1,1.1340205E1,5.2353344E0,1.5670129E1,2.0284622E1,1.3059416E1,1.1342806E1,6.1433797E0,1.7062584E0,1.2303063E0,2.704514E0,6.2167535E0,1.2465103E0,8.423558E0,3.4853474E1,1.7219069E0,4.237647E0,2.2592443E1,2.6468785E0,9.135899E0,2.2043068E0,1.4957755E0,3.739559E0,8.838548E0,6.8315806E0,1.9124348E1,1.1602743E0,1.15946245E1,1.4647906E0,9.037382E0,2.3054228E0],"tree_param":{"num_deleted":"0","num_feature":"14","num_nodes":"53","size_leaf_vector":"1"}},{"base_weights":[-1.1922308E-2,-8.2379353E-1,4.7737646E-1,-1.0256659E0,-1.8979718E-1,2.0136946E-1,9.188475E-1,-1.968632E-1,-1.1373324E0,-9.971367E-1,6.678452E-1,6.117608E-2,1.0729837E-1,1.3137141E0,4.8157328E-1,4.3753335E-1,-9.0129155E-1,-1.2311337E0,-3.08283E-1,-1.2129135E0,1.4552227E-2,1.169689E-1,6.775765E-2,1.6308422E-1,-6.190629E-1,1.345956E0,1.8297551E-2,-9.324495E-2,7.3104614E-1,3.3567484E-2,-2.048727E-3,-5.8254268E-2,-8.891549E-3,3.8085913E-3,-6.432654E-2,-3.6251236E-2,1.889643E-2,-1.5074124E-2,-6.782755E-2,6.674619E-2,-3.07509E-2,2.9512277E-2,3.444973E-5,1.877552E-2,-6.082399E-2,1.8709224E-2,6.9058925E-2,-2.7585236E-2,3.320827E-2,6.345954E-2,2.0752473E-2],"categories":[],"categories_nodes":[],"categories_segments":[],"categories_sizes":[],"default_left":[0,0,0,0,0,0,0,0,0,0,0,0,0,0,0,0,0,0,0,0,0,0,0,0,0,0,0,0,0,0,0,0,0,0,0,0,0,0,0,0,0,0,0,0,0,0,0,0,0,0,0],"id":8,"left_children":[1,3,5,7,9,11,13,15,17,19,21,-1,23,25,27,29,31,33,35,37,-1,39,-1,41,43,45,-1,47,49,-1,-1,-1,-1,-1,-1,-1,-1,-1,-1,-1,-1,-1,-1,-1,-1,-1,-1,-1,-1,-1,-1],"loss_changes":[7.615804E1,9.031597E0,1.4392567E1,4.815483E0,1.3570459E1,7.070161E0,7.2654533E0,3.8239872E0,3.3358192E0,3.132947E0,3.4898605E0,0E0,2.9243777E0,2.2426605E-1,3.407175E0,5.5460876E-1,5.4919386E-1,3.1821213E0,2.0442286E0,7.378254E-1,0E0,6.5653853E0,0E0,4.5432744E0,3.5335898E0,2.4691391E-1,0E0,3.1214125E0,2.253643E0,0E0,0E0,0E0,0E0,0E0,0E0,0E0,0E0,0E0,0E0,0E0,0E0,0E0,0E0,0E0,0E0,0E0,0E0,0E0,0E0,0E0,0E0],"parents":[2147483647,0,0,1,1,2,2,3,3,4,4,5,5,6,6,7,7,8,8,9,9,10,10,12,12,13,13,14,14,15,15,16,16,17,17,18,18,19,19,21,21,23,23,24,24,25,25,27,27,28,28],"right_children":[2,4,6,8,10,12,14,16,18,20,22,-1,24,26,28,30,32,34,36,38,-1,40,-1,42,44,46,-1,48,50,-1,-1,-1,-1,-1,-1,-1,-1,-1,-1,-1,-1,-1,-1,-1,-1,-1,-1,-1,-1,-1,-1],"split_conditions":[-9.7E-2,6E0,2.3363636E-1,-7.2727275E-1,-3.6333334E0,-5.955357E0,2.7552447E0,2E0,-6.0992647E-2,1.14285715E-1,1.2321428E0,6.117608E-2,1.2309211E1,1.0666667E0,3.693007E-1,3.0555555E-1,-1.7930147E-1,-9.478633E0,2.3809524E-2,-4.7777778E-1,1.4552227E-2,-5.816994E-1,6.775765E-2,-2.777778E-1,4E0,2.1103897E0,1.8297551E-2,1E0,1E0,3.3567484E-2,-2.048727E-3,-5.8254268E-2,-8.891549E-3,3.8085913E-3,-6.432654E-2,-3.6251236E-2,1.889643E-2,-1.5074124E-2,-6.782755E-2,6.674619E-2,-3.07509E-2,2.9512277E-2,3.444973E-5,1.877552E-2,-6.082399E-2,1.8709224E-2,6.9058925E-2,-2.7585236E-2,3.320827E-2,6.345954E-2,2.0752473E-2],"split_indices":[4,13,10,9,1,7,7,13,10,8,8,0,1,12,4,12,4,7,12,12,0,8,0,12,13,1,0,13,13,0,0,0,0,0,0,0,0,0,0,0,0,0,0,0,0,0,0,0,0,0,0],"split_type":[0,0,0,0,0,0,0,0,0,0,0,0,0,0,0,0,0,0,0,0,0,0,0,0,0,0,0,0,0,0,0,0,0,0,0,0,0,0,0,0,0,0,0,0,0,0,0,0,0,0,0],"sum_hessian":[1.8972433E2,7.108786E1,1.18636475E2,5.3450703E1,1.7637156E1,7.389413E1,4.4742355E1,6.67452E0,4.6776184E1,9.001225E0,8.63593E0,5.2156687E0,6.867845E1,2.2458023E1,2.2284332E1,3.7111769E0,2.963343E0,4.1586018E1,5.1901684E0,7.759843E0,1.2413824E0,5.4433084E0,3.1926212E0,6.45002E1,4.1782537E0,2.1312843E1,1.1451797E0,6.933914E0,1.5350418E1,2.2222822E0,1.4888947E0,1.7242131E0,1.2391298E0,1.6753242E0,3.991069E1,3.1939163E0,1.9962518E0,1.478316E0,6.2815266E0,1.7341511E0,3.7091575E0,1.7041069E1,4.745913E1,1.7073382E0,2.4709153E0,1.1520405E0,2.0160803E1,4.4885745E0,2.4453394E0,4.5630474E0,1.0787372E1],"tree_param":{"num_deleted":"0","num_feature":"14","num_nodes":"51","size_leaf_vector":"1"}},{"base_weights":[3.6527313E-2,-7.6768386E-1,4.1000256E-1,2.677717E-2,-9.442114E-1,1.4296451E-1,8.713229E-1,-6.2733805E-1,4.6395436E-1,-2.5790796E-1,-1.1239898E0,1.9638284E-1,-5.6030273E-2,1.2174257E0,4.5218888E-1,-5.7272255E-2,2.3332506E-3,1.06623955E-1,4.6667237E-2,-4.719062E-1,2.9673487E-2,4.656129E-3,-1.1930587E0,9.939522E-1,1.1912155E-1,1.2801422E0,4.6844804E-3,-2.5103825E-1,7.942455E-1,1.2279475E-2,-2.129534E-3,-7.6381858E-3,-4.0410016E-2,-6.420078E-2,-1.2465998E-2,6.4117946E-2,8.554052E-3,-3.788915E-2,1.1801882E-2,3.440203E-2,6.914094E-2,1.688814E-2,-3.2466784E-2,2.8607292E-2,5.4489654E-2],"categories":[],"categories_nodes":[],"categories_segments":[],"categories_sizes":[],"default_left":[0,0,0,0,0,0,0,0,0,0,0,0,0,0,0,0,0,0,0,0,0,0,0,0,0,0,0,0,0,0,0,0,0,0,0,0,0,0,0,0,0,0,0,0,0],"id":9,"left_children":[1,3,5,7,9,11,13,15,17,19,21,23,-1,25,27,-1,-1,29,-1,31,-1,-1,33,35,37,39,-1,41,43,-1,-1,-1,-1,-1,-1,-1,-1,-1,-1,-1,-1,-1,-1,-1,-1],"loss_changes":[5.6195004E1,8.348648E0,1.5606756E1,3.654622E0,5.7048836E0,5.7601075E0,6.212673E0,1.8473694E0,1.179414E0,2.3540199E0,3.3226662E0,4.786594E0,0E0,1.6380997E0,5.6542625E0,0E0,0E0,1.2364099E-1,0E0,9.1263914E-1,0E0,0E0,2.78936E0,1.4166331E0,7.7354584E0,4.8012543E-1,0E0,2.1378455E0,3.9369106E-1,0E0,0E0,0E0,0E0,0E0,0E0,0E0,0E0,0E0,0E0,0E0,0E0,0E0,0E0,0E0,0E0],"parents":[2147483647,0,0,1,1,2,2,3,3,4,4,5,5,6,6,7,7,8,8,9,9,10,10,11,11,13,13,14,14,17,17,19,19,22,22,23,23,24,24,25,25,27,27,28,28],"right_children":[2,4,6,8,10,12,14,16,18,20,22,24,-1,26,28,-1,-1,30,-1,32,-1,-1,34,36,38,40,-1,42,44,-1,-1,-1,-1,-1,-1,-1,-1,-1,-1,-1,-1,-1,-1,-1,-1],"split_conditions":[-8.590909E-2,-5.4736843E0,2.382906E-1,-3.474026E0,2.761905E-1,8.008547E0,2.7552447E0,3.5E-1,-9.803922E-2,-8.547619E-1,-1.75E0,-5.8102565E0,-5.6030273E-2,1.1904762E0,3.693007E-1,-5.7272255E-2,2.3332506E-3,-1.5555556E-1,4.6667237E-2,-8.789474E0,2.9673487E-2,4.656129E-3,-2.6065164E0,2.8030303E0,-3.3566177E0,-7.5104895E0,4.6844804E-3,-1.5E-1,1.1958042E0,1.2279475E-2,-2.129534E-3,-7.6381858E-3,-4.0410016E-2,-6.420078E-2,-1.2465998E-2,6.4117946E-2,8.554052E-3,-3.788915E-2,1.1801882E-2,3.440203E-2,6.914094E-2,1.688814E-2,-3.2466784E-2,2.8607292E-2,5.4489654E-2],"split_indices":[10,7,10,1,2,3,7,12,9,2,12,7,0,12,4,0,0,12,0,6,0,0,5,3,1,2,0,12,8,0,0,0,0,0,0,0,0,0,0,0,0,0,0,0,0],"split_type":[0,0,0,0,0,0,0,0,0,0,0,0,0,0,0,0,0,0,0,0,0,0,0,0,0,0,0,0,0,0,0,0,0,0,0,0,0,0,0,0,0,0,0,0,0],"sum_hessian":[1.8504861E2,5.8349037E1,1.2669958E2,1.076219E1,4.7586845E1,8.107736E1,4.5622215E1,4.1371346E0,6.625056E0,1.0383281E1,3.7203564E1,7.8599106E1,2.4782522E0,2.3944916E1,2.1677301E1,1.9436117E0,2.1935227E0,4.4582787E0,2.1667771E0,8.653814E0,1.7294667E0,1.979158E0,3.5224407E1,5.8936863E0,7.270542E1,2.2547348E1,1.3975673E0,7.180713E0,1.4496589E1,1.9739927E0,2.484286E0,5.1862907E0,3.4675236E0,3.179907E1,3.425337E0,3.9506383E0,1.9430476E0,7.908435E0,6.479698E1,4.4702053E0,1.8077143E1,2.958767E0,4.221946E0,9.952967E0,4.543622E0],"tree_param":{"num_deleted":"0","num_feature":"14","num_nodes":"45","size_leaf_vector":"1"}},{"base_weights":[-6.685031E-3,-5.737676E-1,6.567101E-1,-5.8725983E-2,-8.041212E-1,1.2795404E-1,8.386002E-1,-4.6366075E-1,3.4226143E-1,-1.1934855E0,-4.1284746E-1,-2.9436255E-1,6.483332E-2,1.0604827E0,2.0066632E-1,-2.8698197E-1,-5.2525915E-2,4.9061555E-2,1.3130374E-1,1.3218728E-2,-1.2558706E0,-7.2773623E-1,3.1055102E-1,4.9614828E-2,-4.8181483E-1,9.888029E-2,1.1337196E0,6.2671447E-1,-5.405792E-1,-2.1021536E-3,-3.828951E-2,5.7851143E-2,-5.4852343E-3,-3.8991716E-2,-6.977608E-2,4.4148006E-3,-4.6935134E-2,-4.553328E-2,3.068958E-2,-3.1256232E-2,3.9378308E-2,1.9323155E-2,-1.5329845E-2,6.460594E-2,3.7904628E-2,1.0066592E-2,4.1286875E-2,-4.834634E-2,4.3179322E-2],"categories":[],"categories_nodes":[],"categories_segments":[],"categories_sizes":[],"default_left":[0,0,0,0,0,0,0,0,0,0,0,0,0,0,0,0,0,0,0,0,0,0,0,0,0,0,0,0,0,0,0,0,0,0,0,0,0,0,0,0,0,0,0,0,0,0,0,0,0],"id":10,"left_children":[1,3,5,7,9,11,13,15,17,19,21,23,-1,25,27,29,-1,-1,31,-1,33,35,37,-1,39,41,43,45,47,-1,-1,-1,-1,-1,-1,-1,-1,-1,-1,-1,-1,-1,-1,-1,-1,-1,-1,-1,-1],"loss_changes":[7.087177E1,1.2002125E1,8.243252E0,5.430107E0,1.0186283E1,1.1932754E1,8.906036E0,1.4173656E0,2.147476E0,3.4792938E0,8.538335E0,4.8209596E0,0E0,3.2376251E0,5.9785333E0,1.6234772E0,0E0,0E0,3.5507832E0,0E0,1.1293831E0,4.5113E0,4.916858E0,0E0,3.4738374E0,6.387666E-1,1.6445351E0,8.3303165E-1,5.0585537E0,0E0,0E0,0E0,0E0,0E0,0E0,0E0,0E0,0E0,0E0,0E0,0E0,0E0,0E0,0E0,0E0,0E0,0E0,0E0,0E0],"parents":[2147483647,0,0,1,1,2,2,3,3,4,4,5,5,6,6,7,7,8,8,9,9,10,10,11,11,13,13,14,14,15,15,18,18,20,20,21,21,22,22,24,24,25,25,26,26,27,27,28,28],"right_children":[2,4,6,8,10,12,14,16,18,20,22,24,-1,26,28,30,-1,-1,32,-1,34,36,38,-1,40,42,44,46,48,-1,-1,-1,-1,-1,-1,-1,-1,-1,-1,-1,-1,-1,-1,-1,-1,-1,-1,-1,-1],"split_conditions":[1.1833333E1,2.761905E-1,1E0,-3.1666667E0,-1.5333333E0,4.391667E0,-2.1818182E0,2.3157895E0,-4.9597526E0,-2.25E0,6E0,-5.8102565E0,6.483332E-2,-1.0210526E1,2.9444444E0,7E0,-5.2525915E-2,4.9061555E-2,-5.9757576E0,1.3218728E-2,1E0,2.5734265E0,2.235294E0,4.9614828E-2,3.579221E1,2.8877193E1,2.5714287E-1,-2.9464287E-1,7E0,-2.1021536E-3,-3.828951E-2,5.7851143E-2,-5.4852343E-3,-3.8991716E-2,-6.977608E-2,4.4148006E-3,-4.6935134E-2,-4.553328E-2,3.068958E-2,-3.1256232E-2,3.9378308E-2,1.9323155E-2,-1.5329845E-2,6.460594E-2,3.7904628E-2,1.0066592E-2,4.1286875E-2,-4.834634E-2,4.3179322E-2],"split_indices":[0,2,13,1,1,7,2,7,2,12,13,7,0,2,7,13,0,0,5,0,13,2,2,0,0,0,12,12,13,0,0,0,0,0,0,0,0,0,0,0,0,0,0,0,0,0,0,0,0],"split_type":[0,0,0,0,0,0,0,0,0,0,0,0,0,0,0,0,0,0,0,0,0,0,0,0,0,0,0,0,0,0,0,0,0,0,0,0,0,0,0,0,0,0,0,0,0,0,0,0,0],"sum_hessian":[1.8638705E2,1.0056085E2,8.58262E1,3.1464691E1,6.909616E1,2.240325E1,6.3422947E1,1.5577524E1,1.5887168E1,3.3604946E1,3.5491215E1,1.7006168E1,5.3970823E0,4.6564705E1,1.6858242E1,1.311742E1,2.460104E0,3.037021E0,1.2850146E1,1.2461514E0,3.2358795E1,2.4723364E1,1.0767851E1,1.6165676E0,1.5389601E1,3.4617612E0,4.3102943E1,1.0803304E1,6.054939E0,9.39773E0,3.7196903E0,1.7217429E0,1.1128404E1,8.833097E0,2.3525698E1,5.1981277E0,1.9525236E1,1.7434561E0,9.024395E0,1.4284458E1,1.1051425E0,2.0527506E0,1.4090106E0,2.860186E1,1.4501084E1,4.084622E0,6.718682E0,4.883535E0,1.1714036E0],"tree_param":{"num_deleted":"0","num_feature":"14","num_nodes":"49","size_leaf_vector":"1"}},{"base_weights":[-1.0825081E-2,-5.786491E-1,5.3444946E-1,1.20666005E-1,-7.5878906E-1,3.9834288E-1,1.1823624E0,5.219383E-1,-3.4473673E-1,3.593127E-2,-9.195851E-1,1.1406221E0,3.059322E-1,-3.4857132E-3,6.721285E-2,7.7391356E-1,-2.0983232E-2,-9.471982E-1,1.7900564E-1,-8.501015E-1,6.7421323E-1,-2.6676512E-1,-1.0731281E0,1.7504381E-2,6.0595423E-2,3.5034564E-1,-4.344828E-2,-2.3555726E-2,5.386254E-2,-5.5415984E-2,-1.7770056E-2,3.726736E-2,-8.35693E-3,9.357671E-3,-5.771024E-2,-1.3629603E-2,5.0439965E-2,-2.8387103E-2,2.2846589E-2,-5.712101E-2,-1.4883197E-2,4.2146612E-2,1.10021075E-2],"categories":[],"categories_nodes":[],"categories_segments":[],"categories_sizes":[],"default_left":[0,0,0,0,0,0,0,0,0,0,0,0,0,0,0,0,0,0,0,0,0,0,0,0,0,0,0,0,0,0,0,0,0,0,0,0,0,0,0,0,0,0,0],"id":11,"left_children":[1,3,5,7,9,11,13,15,17,19,21,23,25,-1,-1,27,-1,29,31,33,35,37,39,-1,-1,41,-1,-1,-1,-1,-1,-1,-1,-1,-1,-1,-1,-1,-1,-1,-1,-1,-1],"loss_changes":[5.8751335E1,1.1800312E1,8.066132E0,3.8964915E0,9.495022E0,5.2422457E0,3.397396E0,2.9547038E0,3.2669656E0,8.164224E0,5.8904343E0,6.362724E-2,4.1581855E0,0E0,0E0,3.9427643E0,0E0,5.654764E-2,1.3188899E0,2.1284356E0,2.923298E0,3.1050715E0,2.322834E0,0E0,0E0,4.4279127E0,0E0,0E0,0E0,0E0,0E0,0E0,0E0,0E0,0E0,0E0,0E0,0E0,0E0,0E0,0E0,0E0,0E0],"parents":[2147483647,0,0,1,1,2,2,3,3,4,4,5,5,6,6,7,7,8,8,9,9,10,10,11,11,12,12,15,15,17,17,18,18,19,19,20,20,21,21,22,22,25,25],"right_children":[2,4,6,8,10,12,14,16,18,20,22,24,26,-1,-1,28,-1,30,32,34,36,38,40,-1,-1,42,-1,-1,-1,-1,-1,-1,-1,-1,-1,-1,-1,-1,-1,-1,-1,-1,-1],"split_conditions":[4.1319445E-2,-1.2952381E0,3.7727273E-1,6.666667E-2,-8E-1,-5.8102565E0,2.9807693E-1,3.75E-1,-2.6390977E-2,-2.9307693E-1,-4.922727E0,-1.1214286E1,9.345395E0,-3.4857132E-3,6.721285E-2,-4.6153846E0,-2.0983232E-2,6.025641E-1,5.6565654E-1,-4.7777777E0,-7.777778E-1,1.3071896E-1,4.6319447E0,1.7504381E-2,6.0595423E-2,-4.5454547E-1,-4.344828E-2,-2.3555726E-2,5.386254E-2,-5.5415984E-2,-1.7770056E-2,3.726736E-2,-8.35693E-3,9.357671E-3,-5.771024E-2,-1.3629603E-2,5.0439965E-2,-2.8387103E-2,2.2846589E-2,-5.712101E-2,-1.4883197E-2,4.2146612E-2,1.10021075E-2],"split_indices":[10,2,10,12,12,7,3,3,10,4,7,7,3,0,0,3,0,12,0,7,8,8,3,0,0,12,0,0,0,0,0,0,0,0,0,0,0,0,0,0,0,0,0],"split_type":[0,0,0,0,0,0,0,0,0,0,0,0,0,0,0,0,0,0,0,0,0,0,0,0,0,0,0,0,0,0,0,0,0,0,0,0,0,0,0,0,0,0,0],"sum_hessian":[1.8775423E2,9.1945335E1,9.580888E1,1.8900913E1,7.3044426E1,8.051084E1,1.529804E1,1.0084518E1,8.816394E0,1.24227295E1,6.0621696E1,7.657754E0,7.285309E1,1.8167615E0,1.3481279E1,8.096078E0,1.9884405E0,3.724071E0,5.092323E0,5.0628552E0,7.3598742E0,1.2064471E1,4.8557224E1,1.1223528E0,6.5354013E0,7.0875656E1,1.977432E0,1.4777291E0,6.618349E0,2.2411087E0,1.4829625E0,1.4942427E0,3.5980802E0,1.2350028E0,3.8278527E0,1.9701283E0,5.389746E0,8.672979E0,3.3914921E0,4.4139866E1,4.4173565E0,1.3682539E1,5.719312E1],"tree_param":{"num_deleted":"0","num_feature":"14","num_nodes":"43","size_leaf_vector":"1"}},{"base_weights":[8.058095E-3,-4.487129E-1,7.4400383E-1,-9.2804337E-1,-1.4417733E-1,1.0205299E0,4.3024015E-1,-4.4781244E-1,-1.0658293E0,5.540979E-1,-2.6982722E-1,4.366421E-1,5.567294E-2,-1.7288224E-1,6.583888E-1,-4.9107682E-2,-1.5200345E-1,-1.3637434E0,-6.066999E-1,-1.3675727E-1,8.992334E-1,-5.832724E-1,4.3872375E-2,5.2663155E-2,-1.3618393E-1,-7.339042E-1,5.758245E-2,1.986798E-1,1.1137587E0,-1.7679993E-2,2.554589E-2,-7.2591975E-2,-3.332107E-2,-1.5557742E-3,-4.92804E-2,-4.2000126E-2,2.8030002E-2,6.397356E-2,-2.8924223E-3,-3.8547557E-2,4.7941147E-3,3.181813E-2,-1.3300069E-2,-2.0272974E-2,1.732162E-2,-4.3729823E-2,2.581802E-3,-5.470687E-3,5.76966E-2,6.6032015E-2,3.2680184E-2],"categories":[],"categories_nodes":[],"categories_segments":[],"categories_sizes":[],"default_left":[0,0,0,0,0,0,0,0,0,0,0,0,0,0,0,0,0,0,0,0,0,0,0,0,0,0,0,0,0,0,0,0,0,0,0,0,0,0,0,0,0,0,0,0,0,0,0,0,0,0,0],"id":12,"left_children":[1,3,5,7,9,11,13,15,17,19,21,23,-1,25,27,-1,29,31,33,35,37,39,41,-1,43,45,-1,47,49,-1,-1,-1,-1,-1,-1,-1,-1,-1,-1,-1,-1,-1,-1,-1,-1,-1,-1,-1,-1,-1,-1],"loss_changes":[6.406328E1,1.7032904E1,5.89291E0,2.5337257E0,6.5629E0,1.579113E0,5.056026E0,1.726893E0,3.9100456E0,2.8590312E0,6.183063E0,2.5704887E0,0E0,8.7588625E0,5.2774105E0,0E0,1.3598349E0,2.736168E-1,3.3347578E0,2.7713342E0,2.9067888E0,4.075447E0,6.0863056E0,0E0,7.184662E-1,9.394579E-1,0E0,4.3314295E0,3.7236595E-1,0E0,0E0,0E0,0E0,0E0,0E0,0E0,0E0,0E0,0E0,0E0,0E0,0E0,0E0,0E0,0E0,0E0,0E0,0E0,0E0,0E0,0E0],"parents":[2147483647,0,0,1,1,2,2,3,3,4,4,5,5,6,6,7,7,8,8,9,9,10,10,11,11,13,13,14,14,16,16,17,17,18,18,19,19,20,20,21,21,22,22,24,24,25,25,27,27,28,28],"right_children":[2,4,6,8,10,12,14,16,18,20,22,24,-1,26,28,-1,30,32,34,36,38,40,42,-1,44,46,-1,48,50,-1,-1,-1,-1,-1,-1,-1,-1,-1,-1,-1,-1,-1,-1,-1,-1,-1,-1,-1,-1,-1,-1],"split_conditions":[2.3761904E-1,-2.3511112E-1,-5.027972E0,2.2102563E0,-7.3333335E-1,-1.0210526E1,1E0,-2.0654762E-1,1.1102941E0,-7.777778E-1,2.4444444E-1,1E0,5.567294E-2,-2.3636363E0,1.8928571E-1,-4.9107682E-2,6.025641E-1,-1.2727273E0,1E0,-8.133333E0,8.951049E-1,7E0,8.406593E-1,5.2663155E-2,4E0,4.090909E-1,5.758245E-2,7E0,5.9333334E0,-1.7679993E-2,2.554589E-2,-7.2591975E-2,-3.332107E-2,-1.5557742E-3,-4.92804E-2,-4.2000126E-2,2.8030002E-2,6.397356E-2,-2.8924223E-3,-3.8547557E-2,4.7941147E-3,3.181813E-2,-1.3300069E-2,-2.0272974E-2,1.732162E-2,-4.3729823E-2,2.581802E-3,-5.470687E-3,5.76966E-2,6.6032015E-2,3.2680184E-2],"split_indices":[4,4,2,2,12,2,13,10,9,8,8,13,0,2,10,0,12,1,13,0,8,13,8,0,13,12,0,13,1,0,0,0,0,0,0,0,0,0,0,0,0,0,0,0,0,0,0,0,0,0,0],"split_type":[0,0,0,0,0,0,0,0,0,0,0,0,0,0,0,0,0,0,0,0,0,0,0,0,0,0,0,0,0,0,0,0,0,0,0,0,0,0,0,0,0,0,0,0,0,0,0,0,0,0,0],"sum_hessian":[1.885814E2,1.166018E2,7.197961E1,4.450491E1,7.2096886E1,3.7062855E1,3.4916756E1,1.086985E1,3.363506E1,1.047488E1,6.1622005E1,5.871284E0,3.119157E1,9.649653E0,2.5267101E1,3.0465028E0,7.8233476E0,1.9203957E1,1.4431103E1,3.6907969E0,6.7840834E0,3.039366E1,3.1228348E1,2.4236367E0,3.447647E0,7.091762E0,2.5578911E0,1.3288392E1,1.197871E1,6.356822E0,1.4665257E0,1.6089296E1,3.1146607E0,6.158336E0,8.272766E0,1.735795E0,1.9550018E0,4.614105E0,2.1699781E0,2.3707209E1,6.6864495E0,1.0362068E1,2.086628E1,2.315556E0,1.1320912E0,5.918393E0,1.173369E0,1.0717259E1,2.571133E0,6.973497E0,5.0052133E0],"tree_param":{"num_deleted":"0","num_feature":"14","num_nodes":"51","size_leaf_vector":"1"}},{"base_weights":[1.2366955E-2,-5.232773E-1,5.738704E-1,-8.901445E-1,-2.1344596E-1,1.291505E-1,7.8635716E-1,-1.3765943E-1,-9.765319E-1,-4.864766E-1,1.0324937E-1,-2.1426658E-1,9.605627E-1,1.0637071E0,1.2997586E-1,2.269179E-1,-3.505307E-2,4.2100614E-3,-1.0205041E0,-7.749821E-1,2.9660992E-2,-1.7950998E-1,1.0622481E0,-6.068298E-1,4.049306E-1,6.259475E-2,-1.65198E-2,2.177563E-1,1.2059807E0,3.7536392E-1,-8.252217E-1,-7.1469187E-3,2.3853539E-2,-2.8630441E-2,-5.8129054E-2,2.0986326E-2,-4.8110623E-2,5.6828316E-2,-1.4260731E-2,3.667539E-2,-2.363043E-2,6.4772226E-2,4.313344E-3,-6.625955E-3,-5.1425356E-2,-2.3584496E-2,3.2534555E-2,2.1442672E-2,-1.1159326E-2,5.926139E-3,6.2003534E-2,-3.832997E-2,2.8025387E-2,-6.6318E-2,1.6170112E-2],"categories":[],"categories_nodes":[],"categories_segments":[],"categories_sizes":[],"default_left":[0,0,0,0,0,0,0,0,0,0,0,0,0,0,0,0,0,0,0,0,0,0,0,0,0,0,0,0,0,0,0,0,0,0,0,0,0,0,0,0,0,0,0,0,0,0,0,0,0,0,0,0,0,0,0],"id":13,"left_children":[1,3,5,7,9,11,13,15,17,19,21,23,25,27,29,31,-1,-1,33,35,37,39,41,43,45,-1,-1,47,49,51,53,-1,-1,-1,-1,-1,-1,-1,-1,-1,-1,-1,-1,-1,-1,-1,-1,-1,-1,-1,-1,-1,-1,-1,-1],"loss_changes":[5.6765293E1,1.0790701E1,8.6047535E0,2.7203102E0,4.6925526E0,9.052639E0,1.1175682E1,1.3271167E0,1.9156685E0,4.3423796E0,7.154664E0,5.774491E0,3.8886251E0,4.9787827E0,4.903734E0,4.5751107E-1,0E0,0E0,1.7361374E0,4.5741253E0,4.2848167E0,5.8831625E0,1.25211E0,2.7278452E0,2.3374162E0,0E0,0E0,7.929007E-1,1.2268562E0,3.8718913E0,2.914801E0,0E0,0E0,0E0,0E0,0E0,0E0,0E0,0E0,0E0,0E0,0E0,0E0,0E0,0E0,0E0,0E0,0E0,0E0,0E0,0E0,0E0,0E0,0E0,0E0],"parents":[2147483647,0,0,1,1,2,2,3,3,4,4,5,5,6,6,7,7,8,8,9,9,10,10,11,11,12,12,13,13,14,14,15,15,18,18,19,19,20,20,21,21,22,22,23,23,24,24,27,27,28,28,29,29,30,30],"right_children":[2,4,6,8,10,12,14,16,18,20,22,24,26,28,30,32,-1,-1,34,36,38,40,42,44,46,-1,-1,48,50,52,54,-1,-1,-1,-1,-1,-1,-1,-1,-1,-1,-1,-1,-1,-1,-1,-1,-1,-1,-1,-1,-1,-1,-1,-1],"split_conditions":[1.3777328E-1,-2.3511112E-1,2E0,-1.492647E0,5E0,3.693007E-1,-3.0871794E0,3E0,-2.3333333E0,-4.909091E-2,4.142857E0,-5.4545456E-1,1E0,-8.857142E0,3.0506578E1,-3.2142857E-1,-3.505307E-2,4.2100614E-3,1E0,-6.75E-1,-2.3216374E0,-3.6934524E0,1.8444444E0,1.865126E1,3.2192514E0,6.259475E-2,-1.65198E-2,4.4846153E1,-1.1904762E0,3.2738094E0,1.7488688E1,-7.1469187E-3,2.3853539E-2,-2.8630441E-2,-5.8129054E-2,2.0986326E-2,-4.8110623E-2,5.6828316E-2,-1.4260731E-2,3.667539E-2,-2.363043E-2,6.4772226E-2,4.313344E-3,-6.625955E-3,-5.1425356E-2,-2.3584496E-2,3.2534555E-2,2.1442672E-2,-1.1159326E-2,5.926139E-3,6.2003534E-2,-3.832997E-2,2.8025387E-2,-6.6318E-2,1.6170112E-2],"split_indices":[4,4,13,2,13,4,2,13,12,4,3,9,13,2,0,12,0,0,13,12,5,6,6,0,1,0,0,0,3,6,5,0,0,0,0,0,0,0,0,0,0,0,0,0,0,0,0,0,0,0,0,0,0,0,0],"split_type":[0,0,0,0,0,0,0,0,0,0,0,0,0,0,0,0,0,0,0,0,0,0,0,0,0,0,0,0,0,0,0,0,0,0,0,0,0,0,0,0,0,0,0,0,0,0,0,0,0,0,0,0,0,0,0],"sum_hessian":[1.8673726E2,9.560412E1,9.113314E1,4.291547E1,5.268865E1,2.9984821E1,6.1148315E1,4.6865296E0,3.822894E1,2.800702E1,2.4681627E1,2.1745195E1,8.239626E0,4.254895E1,1.8599367E1,3.2079206E0,1.4786088E0,1.4852673E0,3.6743675E1,1.764339E1,1.0363631E1,1.968913E1,4.992496E0,1.3320278E1,8.424916E0,6.74723E0,1.4923961E0,6.4900413E0,3.605891E1,1.5280795E1,3.318571E0,1.4672122E0,1.7407084E0,1.0059988E1,2.6683685E1,2.2221544E0,1.5421236E1,1.7172575E0,8.646374E0,4.4195137E0,1.5269617E1,3.7654674E0,1.2270286E0,6.88743E0,6.4328485E0,1.6434548E0,6.7814612E0,4.407439E0,2.082602E0,1.2321024E0,3.4826805E1,1.6936758E0,1.358712E1,2.2027748E0,1.1157963E0],"tree_param":{"num_deleted":"0","num_feature":"14","num_nodes":"55","size_leaf_vector":"1"}},{"base_weights":[-2.169994E-3,-7.0453024E-1,3.9934397E-1,-9.047091E-1,-7.8624696E-2,1.5784693E-1,8.184897E-1,-1.129396E0,-5.654189E-1,-5.982296E-1,8.536014E-1,2.4826364E-1,-3.5408905E-1,1.0899211E0,4.8745972E-1,-5.3977793E-1,-1.2494782E0,2.5736248E-1,-7.6606727E-1,1.7175348E-2,-8.4669435E-1,6.1419006E-2,-3.3586635E-4,-2.032906E-1,3.8874304E-1,-8.543914E-1,4.9673587E-1,1.1601288E0,-1.4155098E-3,-2.359907E-1,7.678277E-1,-4.107082E-2,1.8913517E-3,-6.3925676E-2,-1.8022776E-2,-1.5444127E-2,3.9288253E-2,-1.5901773E-3,-5.1280655E-2,-5.2177723E-2,6.8516233E-3,2.7337996E-2,-5.7195913E-2,2.5382308E-2,-2.4834318E-2,1.347204E-2,-5.4942098E-2,3.9244514E-2,-2.0283877E-3,3.1710055E-2,6.357884E-2,-2.3136778E-2,1.3748814E-2,-1.0209902E-2,4.275535E-2],"categories":[],"categories_nodes":[],"categories_segments":[],"categories_sizes":[],"default_left":[0,0,0,0,0,0,0,0,0,0,0,0,0,0,0,0,0,0,0,0,0,0,0,0,0,0,0,0,0,0,0,0,0,0,0,0,0,0,0,0,0,0,0,0,0,0,0,0,0,0,0,0,0,0,0],"id":14,"left_children":[1,3,5,7,9,11,13,15,17,19,21,23,25,27,29,31,33,35,37,-1,39,-1,-1,41,43,45,47,49,-1,51,53,-1,-1,-1,-1,-1,-1,-1,-1,-1,-1,-1,-1,-1,-1,-1,-1,-1,-1,-1,-1,-1,-1,-1,-1],"loss_changes":[5.183085E1,8.304714E0,1.17082405E1,3.215477E0,8.887895E0,3.579597E0,3.2883205E0,1.4079933E0,3.8528643E0,3.0268192E0,2.1368227E0,4.1831717E0,5.419792E0,1.8030987E0,4.432869E0,1.1270334E0,1.5026474E-1,1.7656405E0,3.4079924E0,0E0,1.9905653E0,0E0,0E0,1.1919855E1,5.483592E0,2.4272442E0,8.025334E-1,4.385357E-1,0E0,8.941691E-1,1.4761944E0,0E0,0E0,0E0,0E0,0E0,0E0,0E0,0E0,0E0,0E0,0E0,0E0,0E0,0E0,0E0,0E0,0E0,0E0,0E0,0E0,0E0,0E0,0E0,0E0],"parents":[2147483647,0,0,1,1,2,2,3,3,4,4,5,5,6,6,7,7,8,8,9,9,10,10,11,11,12,12,13,13,14,14,15,15,16,16,17,17,18,18,20,20,23,23,24,24,25,25,26,26,27,27,29,29,30,30],"right_children":[2,4,6,8,10,12,14,16,18,20,22,24,26,28,30,32,34,36,38,-1,40,-1,-1,42,44,46,48,50,-1,52,54,-1,-1,-1,-1,-1,-1,-1,-1,-1,-1,-1,-1,-1,-1,-1,-1,-1,-1,-1,-1,-1,-1,-1,-1],"split_conditions":[-3.1333335E-2,6E0,2.382906E-1,-2.3511112E-1,7.254902E-1,3.9513888E0,2.7552447E0,1.4358975E0,-1.2766666E1,-8.3333336E-2,-2.547619E0,1E0,4.7908497E0,1.1904762E0,3.693007E-1,4.1666666E-1,9.015152E0,1.5878788E0,-6.109804E0,1.7175348E-2,-7.4666667E0,6.1419006E-2,-3.3586635E-4,1.8928571E-1,4.1666666E-1,-9.166667E-1,9.087913E0,-7.5104895E0,-1.4155098E-3,1E0,4.375E-1,-4.107082E-2,1.8913517E-3,-6.3925676E-2,-1.8022776E-2,-1.5444127E-2,3.9288253E-2,-1.5901773E-3,-5.1280655E-2,-5.2177723E-2,6.8516233E-3,2.7337996E-2,-5.7195913E-2,2.5382308E-2,-2.4834318E-2,1.347204E-2,-5.4942098E-2,3.9244514E-2,-2.0283877E-3,3.1710055E-2,6.357884E-2,-2.3136778E-2,1.3748814E-2,-1.0209902E-2,4.275535E-2],"split_indices":[10,13,10,4,3,2,7,2,5,12,6,13,5,12,4,12,2,3,6,0,5,0,0,10,9,12,5,2,0,13,8,0,0,0,0,0,0,0,0,0,0,0,0,0,0,0,0,0,0,0,0,0,0,0,0],"split_type":[0,0,0,0,0,0,0,0,0,0,0,0,0,0,0,0,0,0,0,0,0,0,0,0,0,0,0,0,0,0,0,0,0,0,0,0,0,0,0,0,0,0,0,0,0,0,0,0,0,0,0,0,0,0,0],"sum_hessian":[1.8179483E2,6.585003E1,1.1594479E2,4.955558E1,1.6294449E1,7.4434715E1,4.1510082E1,2.8411825E1,2.1143753E1,1.0692778E1,5.6016703E0,6.369936E1,1.0735356E1,2.1548582E1,1.99615E1,5.7370915E0,2.2674734E1,4.0899205E0,1.7053833E1,2.1523554E0,8.540422E0,3.6038942E0,1.997776E0,1.5008668E1,4.8690693E1,6.7575736E0,3.9777822E0,2.0240334E1,1.308248E0,5.619485E0,1.4342015E1,3.5728657E0,2.1642258E0,2.153335E1,1.1413854E0,2.1748044E0,1.9151161E0,4.7469854E0,1.2306847E1,7.0656514E0,1.474771E0,8.583204E0,6.4254637E0,4.3302345E1,5.388346E0,1.1890101E0,5.5685635E0,2.2892628E0,1.6885195E0,4.7089844E0,1.5531349E1,3.9576464E0,1.6618384E0,1.071309E0,1.3270706E1],"tree_param":{"num_deleted":"0","num_feature":"14","num_nodes":"55","size_leaf_vector":"1"}},{"base_weights":[-4.667251E-3,-6.2901896E-1,3.977847E-1,-7.696403E-1,-1.9086286E-1,1.8935119E-1,7.7555937E-1,-1.7797956E-1,-9.65591E-1,-6.768996E-1,7.4569035E-1,-2.6442206E-1,3.7725094E-1,8.7475216E-1,-2.5250226E-2,8.145611E-1,-4.5061326E-1,-1.0549963E0,9.255436E-2,-5.5838663E-2,8.703467E-2,6.959627E-2,-2.776654E-2,-5.992103E-1,4.3640143E-1,8.2885784E-1,-3.4079414E-2,5.041968E-1,1.060818E0,5.546583E-2,7.743506E-3,-3.89839E-2,1.8033115E-2,-7.0654474E-2,-3.0527983E-2,-4.1051373E-2,3.6822215E-2,5.316442E-2,-3.6393914E-2,1.8829336E-2,-3.7609454E-2,-3.035945E-2,3.6764707E-2,-8.34819E-3,5.135441E-2,4.9732804E-2,-1.00240605E-2,1.603203E-2,4.9083572E-2,5.6804955E-2,2.336312E-2],"categories":[],"categories_nodes":[],"categories_segments":[],"categories_sizes":[],"default_left":[0,0,0,0,0,0,0,0,0,0,0,0,0,0,0,0,0,0,0,0,0,0,0,0,0,0,0,0,0,0,0,0,0,0,0,0,0,0,0,0,0,0,0,0,0,0,0,0,0,0,0],"id":15,"left_children":[1,3,5,7,9,11,13,15,17,19,21,23,25,27,-1,29,31,33,35,-1,37,-1,-1,39,41,43,45,47,49,-1,-1,-1,-1,-1,-1,-1,-1,-1,-1,-1,-1,-1,-1,-1,-1,-1,-1,-1,-1,-1,-1],"loss_changes":[4.530058E1,4.2067127E0,8.485533E0,5.991543E0,8.924736E0,6.2364416E0,5.3521194E0,4.277815E0,3.854332E0,4.365437E0,6.486448E0,5.3443694E0,9.559442E0,1.9640923E0,0E0,5.0302696E-1,3.479862E0,4.9774857E0,2.965341E0,0E0,5.204394E0,0E0,0E0,2.5345984E0,2.8114262E0,5.0071945E0,4.9604583E0,9.141238E-1,5.068226E-1,0E0,0E0,0E0,0E0,0E0,0E0,0E0,0E0,0E0,0E0,0E0,0E0,0E0,0E0,0E0,0E0,0E0,0E0,0E0,0E0,0E0,0E0],"parents":[2147483647,0,0,1,1,2,2,3,3,4,4,5,5,6,6,7,7,8,8,9,9,10,10,11,11,12,12,13,13,15,15,16,16,17,17,18,18,20,20,23,23,24,24,25,25,26,26,27,27,28,28],"right_children":[2,4,6,8,10,12,14,16,18,20,22,24,26,28,-1,30,32,34,36,-1,38,-1,-1,40,42,44,46,48,50,-1,-1,-1,-1,-1,-1,-1,-1,-1,-1,-1,-1,-1,-1,-1,-1,-1,-1,-1,-1,-1,-1],"split_conditions":[-7.722222E-2,6E0,3.693007E-1,1.6E0,1.14285715E-1,1E0,7.2539682E0,-7.8571427E-1,-1.4833333E0,-3.6333334E0,-3.6934524E0,-2.272446E0,-3.888889E-1,-7.216783E0,-2.5250226E-2,-2.3618422E1,6.904762E-1,1.1875E0,2.9963236E0,-5.5838663E-2,-5.816994E-1,6.959627E-2,-2.776654E-2,2.020202E-2,-7.291667E-1,-1.2506266E0,-7.916667E-1,2.0220512E1,-1.1333333E0,5.546583E-2,7.743506E-3,-3.89839E-2,1.8033115E-2,-7.0654474E-2,-3.0527983E-2,-4.1051373E-2,3.6822215E-2,5.316442E-2,-3.6393914E-2,1.8829336E-2,-3.7609454E-2,-3.035945E-2,3.6764707E-2,-8.34819E-3,5.135441E-2,4.9732804E-2,-1.00240605E-2,1.603203E-2,4.9083572E-2,5.6804955E-2,2.336312E-2],"split_indices":[4,13,4,2,8,13,3,12,6,1,6,2,9,2,0,0,12,9,3,0,8,0,0,8,1,3,12,6,2,0,0,0,0,0,0,0,0,0,0,0,0,0,0,0,0,0,0,0,0,0,0],"split_type":[0,0,0,0,0,0,0,0,0,0,0,0,0,0,0,0,0,0,0,0,0,0,0,0,0,0,0,0,0,0,0,0,0,0,0,0,0,0,0,0,0,0,0,0,0,0,0,0,0,0,0],"sum_hessian":[1.7828955E2,6.965929E1,1.0863026E2,5.216194E1,1.7497345E1,7.0972885E1,3.7657375E1,1.34521885E1,3.870975E1,1.1701789E1,5.7955556E0,2.0663586E1,5.0309296E1,3.5244247E1,2.4131281E0,2.4704835E0,1.0981705E1,3.5696636E1,3.0131164E0,7.132832E0,4.568957E0,3.825504E0,1.9700518E0,1.4081667E1,6.5819197E0,2.349674E1,2.6812555E1,1.3021442E1,2.2222807E1,1.2364552E0,1.2340283E0,7.840455E0,3.1412501E0,1.8561602E1,1.7135035E1,1.1319485E0,1.8811679E0,1.9400356E0,2.6289215E0,1.7103378E0,1.2371329E1,1.2357631E0,5.3461566E0,3.9269917E0,1.9569748E1,3.0401554E0,2.37724E1,1.0613006E1,2.408437E0,1.8910334E1,3.3124733E0],"tree_param":{"num_deleted":"0","num_feature":"14","num_nodes":"51","size_leaf_vector":"1"}},{"base_weights":[2.7111962E-2,-6.041935E-1,3.4700087E-1,1.867451E-1,-6.9537127E-1,4.2817127E-2,6.7717254E-1,2.1876842E-2,-2.1114169E-1,-9.47546E-1,-2.6157185E-1,7.500315E-1,-7.5397365E-2,8.4118253E-1,1.510297E-1,-4.7938302E-2,3.1339094E-2,-1.2618921E0,-4.414041E-1,-7.599937E-1,6.473163E-1,-3.9940327E-4,9.5700186E-1,-1.606591E-2,-5.6959964E-2,1.0814847E0,4.6635696E-1,7.9604185E-1,-2.8096664E-1,-6.623275E-2,-7.0876353E-3,-3.961588E-3,-3.9391775E-2,-5.586625E-2,-1.2216247E-3,5.970707E-2,-1.9807916E-2,6.310138E-2,1.3080791E-2,-6.9098757E-3,3.5993982E-2,-7.918324E-3,5.7138123E-2,6.19325E-3,3.9274793E-2,5.1092472E-2,2.1490013E-2,-3.0575085E-2,2.6859224E-2],"categories":[],"categories_nodes":[],"categories_segments":[],"categories_sizes":[],"default_left":[0,0,0,0,0,0,0,0,0,0,0,0,0,0,0,0,0,0,0,0,0,0,0,0,0,0,0,0,0,0,0,0,0,0,0,0,0,0,0,0,0,0,0,0,0,0,0,0,0],"id":16,"left_children":[1,3,5,7,9,11,13,-1,15,17,19,21,23,25,27,-1,-1,29,31,33,35,-1,37,39,-1,41,43,45,47,-1,-1,-1,-1,-1,-1,-1,-1,-1,-1,-1,-1,-1,-1,-1,-1,-1,-1,-1,-1],"loss_changes":[3.7024097E1,4.5773754E0,1.2186177E1,8.071388E-1,5.824444E0,5.4381976E0,4.8998375E0,0E0,2.7583122E0,4.9673386E0,1.0361783E1,1.4683251E0,3.5201027E0,3.476019E0,4.4207034E0,0E0,0E0,1.2802315E0,1.7995918E0,3.7919874E0,5.184119E0,0E0,1.2228556E0,4.9633617E0,0E0,2.1692257E0,1.9818215E0,8.202934E-2,2.967837E0,0E0,0E0,0E0,0E0,0E0,0E0,0E0,0E0,0E0,0E0,0E0,0E0,0E0,0E0,0E0,0E0,0E0,0E0,0E0,0E0],"parents":[2147483647,0,0,1,1,2,2,3,3,4,4,5,5,6,6,8,8,9,9,10,10,11,11,12,12,13,13,14,14,17,17,18,18,19,19,20,20,22,22,23,23,25,25,26,26,27,27,28,28],"right_children":[2,4,6,8,10,12,14,-1,16,18,20,22,24,26,28,-1,-1,30,32,34,36,-1,38,40,-1,42,44,46,48,-1,-1,-1,-1,-1,-1,-1,-1,-1,-1,-1,-1,-1,-1,-1,-1,-1,-1,-1,-1],"split_conditions":[-1.1363637E-1,-1.492647E0,7.070513E0,4E0,5E0,-4.8E0,-3.0871794E0,2.1876842E-2,-1.1377273E1,1.1875E0,1.14285715E-1,-7.25731E0,6.9560437E0,4.3636365E0,-8.611111E-1,-4.7938302E-2,3.1339094E-2,5.069264E0,1E0,-3.4034187E-1,-1.5E0,-3.9940327E-4,4.20979E0,2.9E0,-5.6959964E-2,-7.762238E-1,4.7420816E0,4E0,2.7807486E-1,-6.623275E-2,-7.0876353E-3,-3.961588E-3,-3.9391775E-2,-5.586625E-2,-1.2216247E-3,5.970707E-2,-1.9807916E-2,6.310138E-2,1.3080791E-2,-6.9098757E-3,3.5993982E-2,-7.918324E-3,5.7138123E-2,6.19325E-3,3.9274793E-2,5.1092472E-2,2.1490013E-2,-3.0575085E-2,2.6859224E-2],"split_indices":[4,2,6,13,13,7,2,0,0,9,8,0,3,7,9,0,0,3,13,4,7,0,3,3,0,3,7,13,9,0,0,0,0,0,0,0,0,0,0,0,0,0,0,0,0,0,0,0,0],"split_type":[0,0,0,0,0,0,0,0,0,0,0,0,0,0,0,0,0,0,0,0,0,0,0,0,0,0,0,0,0,0,0,0,0,0,0,0,0,0,0,0,0,0,0,0,0,0,0,0,0],"sum_hessian":[1.8129698E2,6.0671707E1,1.2062527E2,6.162843E0,5.4508865E1,6.337147E1,5.72538E1,3.719044E0,2.4437993E0,3.3721634E1,2.0787231E1,8.310359E0,5.5061115E1,4.3191353E1,1.4062444E1,1.2152736E0,1.2285256E0,1.9881071E1,1.3840562E1,1.3530894E1,7.2563367E0,1.988602E0,6.321757E0,5.311389E1,1.9472204E0,2.516968E1,1.8021673E1,5.3025384E0,8.759905E0,1.8653322E1,1.2277496E0,7.3672595E0,6.473302E0,8.757528E0,4.773366E0,4.666502E0,2.589835E0,3.827844E0,2.493913E0,4.6250713E1,6.8631783E0,1.110769E0,2.405891E1,9.362353E0,8.659321E0,2.1727965E0,3.1297417E0,6.4191384E0,2.3407667E0],"tree_param":{"num_deleted":"0","num_feature":"14","num_nodes":"49","size_leaf_vector":"1"}},{"base_weights":[-1.2312098E-2,-5.4091984E-1,3.6779115E-1,-7.435244E-1,-9.4747655E-2,1.2842016E-1,7.574027E-1,-3.0481637E-1,-8.8112444E-1,-5.5132294E-1,4.0809026E-1,-2.4449873E-1,3.765106E-1,8.192494E-1,-2.0109542E-2,-4.8374006E-1,2.3524093E-2,-1.027947E0,-4.216971E-1,-1.0627301E0,3.271186E-1,-2.538396E-1,9.2545176E-1,-4.0737095E-1,8.861085E-1,8.290547E-1,-6.0263954E-2,4.76357E-1,9.2816234E-1,-1.150594E-2,-5.2379735E-2,-5.577879E-2,-6.834283E-3,-6.0675843E-3,-4.485945E-2,-6.898495E-3,-6.7670345E-2,2.9703775E-2,-8.867003E-3,5.2790023E-2,-3.936376E-2,6.070167E-2,-1.2271362E-2,-4.939344E-3,-4.5543306E-2,5.093367E-2,1.4400745E-2,-9.068587E-3,4.913665E-2,9.682987E-3,-3.319345E-2,4.5987874E-2,5.3714407E-3,3.0697739E-2,5.677232E-2],"categories":[],"categories_nodes":[],"categories_segments":[],"categories_sizes":[],"default_left":[0,0,0,0,0,0,0,0,0,0,0,0,0,0,0,0,0,0,0,0,0,0,0,0,0,0,0,0,0,0,0,0,0,0,0,0,0,0,0,0,0,0,0,0,0,0,0,0,0,0,0,0,0,0,0],"id":17,"left_children":[1,3,5,7,9,11,13,15,17,19,21,23,25,27,-1,29,-1,31,33,35,37,39,41,43,45,47,49,51,53,-1,-1,-1,-1,-1,-1,-1,-1,-1,-1,-1,-1,-1,-1,-1,-1,-1,-1,-1,-1,-1,-1,-1,-1,-1,-1],"loss_changes":[3.6156395E1,6.7329044E0,9.667031E0,2.847046E0,5.8840218E0,6.2035193E0,3.1723957E0,2.1491132E0,2.181059E0,6.3424106E0,4.448827E0,5.3321185E0,7.968492E0,9.7559357E-1,0E0,1.4389002E0,0E0,2.087246E0,1.4738498E0,2.1436758E0,8.695659E-1,5.1506963E0,2.7044177E0,3.6826763E0,1.0921955E-3,3.243988E0,3.3959868E0,1.7342489E0,1.1107044E0,0E0,0E0,0E0,0E0,0E0,0E0,0E0,0E0,0E0,0E0,0E0,0E0,0E0,0E0,0E0,0E0,0E0,0E0,0E0,0E0,0E0,0E0,0E0,0E0,0E0,0E0],"parents":[2147483647,0,0,1,1,2,2,3,3,4,4,5,5,6,6,7,7,8,8,9,9,10,10,11,11,12,12,13,13,15,15,17,17,18,18,19,19,20,20,21,21,22,22,23,23,24,24,25,25,26,26,27,27,28,28],"right_children":[2,4,6,8,10,12,14,16,18,20,22,24,26,28,-1,30,-1,32,34,36,38,40,42,44,46,48,50,52,54,-1,-1,-1,-1,-1,-1,-1,-1,-1,-1,-1,-1,-1,-1,-1,-1,-1,-1,-1,-1,-1,-1,-1,-1,-1,-1],"split_conditions":[-9.846154E-3,1.3071896E-1,3.693007E-1,1E0,4E0,2E0,7.2539682E0,-2.969697E-1,-1.1731092E1,-8.040404E-2,1.60401E-1,2.6654413E0,-2.769231E-1,5.5454546E-1,-2.0109542E-2,-7.2727275E-1,2.3524093E-2,-6.868421E-2,-4.060606E-1,-2.3618422E1,-3.8125E-2,3.0769232E-1,-8E-1,2.2066668E1,1.986111E1,-1.2506266E0,8.606061E-1,5E0,4E0,-1.150594E-2,-5.2379735E-2,-5.577879E-2,-6.834283E-3,-6.0675843E-3,-4.485945E-2,-6.898495E-3,-6.7670345E-2,2.9703775E-2,-8.867003E-3,5.2790023E-2,-3.936376E-2,6.070167E-2,-1.2271362E-2,-4.939344E-3,-4.5543306E-2,5.093367E-2,1.4400745E-2,-9.068587E-3,4.913665E-2,9.682987E-3,-3.319345E-2,4.5987874E-2,5.3714407E-3,3.0697739E-2,5.677232E-2],"split_indices":[4,8,4,13,13,13,3,8,0,10,3,3,9,8,0,8,0,10,6,0,10,8,6,0,0,3,8,13,13,0,0,0,0,0,0,0,0,0,0,0,0,0,0,0,0,0,0,0,0,0,0,0,0,0,0],"split_type":[0,0,0,0,0,0,0,0,0,0,0,0,0,0,0,0,0,0,0,0,0,0,0,0,0,0,0,0,0,0,0,0,0,0,0,0,0,0,0,0,0,0,0,0,0,0,0,0,0,0,0,0,0,0,0],"sum_hessian":[1.7795906E2,7.426123E1,1.0369782E2,5.061209E1,2.3649141E1,6.50573E1,3.8640533E1,1.2851882E1,3.776021E1,1.2344213E1,1.130493E1,2.599588E1,3.9061413E1,3.696264E1,1.6778922E0,1.0747603E1,2.104278E0,2.7677618E1,1.0082591E1,7.6694536E0,4.674759E0,5.1829915E0,6.1219378E0,2.3281673E1,2.7142067E0,1.8743282E1,2.0318132E1,1.0205676E1,2.6756964E1,8.384418E0,2.3631861E0,2.4970806E1,2.7068129E0,6.9486656E0,3.1339257E0,2.1868503E0,5.482603E0,2.9408348E0,1.733924E0,1.2166768E0,3.9663148E0,4.881868E0,1.2400699E0,1.5176464E1,8.105209E0,1.6461449E0,1.0680618E0,2.4505885E0,1.6292694E1,1.4779764E1,5.5383677E0,3.956936E0,6.24874E0,1.2210229E1,1.4546735E1],"tree_param":{"num_deleted":"0","num_feature":"14","num_nodes":"55","size_leaf_vector":"1"}},{"base_weights":[3.4720175E-2,-4.4768828E-1,5.446863E-1,-6.2256855E-1,-2.7462192E-2,1.8179774E-1,7.173289E-1,3.8867705E-2,-7.868543E-1,-4.3929604E-1,6.709938E-1,-4.89624E-2,5.6836963E-2,9.515466E-1,2.2767767E-1,4.1728795E-1,-4.8629403E-1,-8.27018E-1,2.5631359E-2,-6.297982E-2,-6.283253E-2,1.1324439E0,1.5743695E-1,6.4014626E-1,-4.1068324E-1,4.594925E-1,1.1699871E0,5.150009E-1,-2.5023085E-1,4.4834755E-2,-4.5168037E-3,3.6272086E-4,-4.928486E-2,-4.9658462E-2,-2.1700237E-2,-4.430249E-2,1.5801644E-2,6.391763E-2,2.0546736E-2,3.731684E-2,-4.58959E-2,-2.2057085E-3,3.726728E-2,3.5050255E-3,-3.1657476E-2,4.785299E-2,-4.1536684E-3,6.2893435E-2,3.0503673E-2,3.1290084E-2,-1.7568422E-2,-5.808095E-2,7.224588E-3],"categories":[],"categories_nodes":[],"categories_segments":[],"categories_sizes":[],"default_left":[0,0,0,0,0,0,0,0,0,0,0,0,0,0,0,0,0,0,0,0,0,0,0,0,0,0,0,0,0,0,0,0,0,0,0,0,0,0,0,0,0,0,0,0,0,0,0,0,0,0,0,0,0],"id":18,"left_children":[1,3,5,7,9,11,13,15,17,19,21,23,-1,25,27,29,31,33,-1,35,-1,37,39,41,43,45,47,49,51,-1,-1,-1,-1,-1,-1,-1,-1,-1,-1,-1,-1,-1,-1,-1,-1,-1,-1,-1,-1,-1,-1,-1,-1],"loss_changes":[4.511883E1,6.9119415E0,5.453169E0,7.260357E0,8.565656E0,6.682113E0,6.6704807E0,3.0229948E0,3.208004E0,5.6703587E0,2.4429693E0,6.538663E0,0E0,3.7948036E0,2.9775014E0,2.2190557E0,1.5857854E0,2.9727707E0,0E0,4.6012874E0,0E0,7.10206E-2,4.7357864E0,6.848645E-1,1.8754764E0,3.8695488E0,5.743637E-1,1.4949865E0,3.21212E0,0E0,0E0,0E0,0E0,0E0,0E0,0E0,0E0,0E0,0E0,0E0,0E0,0E0,0E0,0E0,0E0,0E0,0E0,0E0,0E0,0E0,0E0,0E0,0E0],"parents":[2147483647,0,0,1,1,2,2,3,3,4,4,5,5,6,6,7,7,8,8,9,9,10,10,11,11,13,13,14,14,15,15,16,16,17,17,19,19,21,21,22,22,23,23,24,24,25,25,26,26,27,27,28,28],"right_children":[2,4,6,8,10,12,14,16,18,20,22,24,-1,26,28,30,32,34,-1,36,-1,38,40,42,44,46,48,50,52,-1,-1,-1,-1,-1,-1,-1,-1,-1,-1,-1,-1,-1,-1,-1,-1,-1,-1,-1,-1,-1,-1,-1,-1],"split_conditions":[1.3777328E-1,6E0,2E0,-1.0897436E0,1.3071896E-1,4.391667E0,-3.0871794E0,1.375E-1,4.7608695E0,-4.3076923E-1,-3.5959597E0,6.2777777E0,5.6836963E-2,-7.230769E0,2.6190478E-1,3.35E-2,2E0,1.4553572E0,2.5631359E-2,-1.0594118E1,-6.283253E-2,-8.5882354E-1,8.406593E-1,-4.953846E0,2.3809524E-2,1.7287582E0,4.733333E0,4.1854167E-1,4.1428572E-1,4.4834755E-2,-4.5168037E-3,3.6272086E-4,-4.928486E-2,-4.9658462E-2,-2.1700237E-2,-4.430249E-2,1.5801644E-2,6.391763E-2,2.0546736E-2,3.731684E-2,-4.58959E-2,-2.2057085E-3,3.726728E-2,3.5050255E-3,-3.1657476E-2,4.785299E-2,-4.1536684E-3,6.2893435E-2,3.0503673E-2,3.1290084E-2,-1.7568422E-2,-5.808095E-2,7.224588E-3],"split_indices":[4,13,13,2,8,7,2,7,6,8,6,6,0,2,12,4,13,9,0,6,0,7,8,2,12,7,7,4,12,0,0,0,0,0,0,0,0,0,0,0,0,0,0,0,0,0,0,0,0,0,0,0,0],"split_type":[0,0,0,0,0,0,0,0,0,0,0,0,0,0,0,0,0,0,0,0,0,0,0,0,0,0,0,0,0,0,0,0,0,0,0,0,0,0,0,0,0,0,0,0,0,0,0,0,0,0,0,0,0],"sum_hessian":[1.8140974E2,9.328645E1,8.812329E1,6.553292E1,2.775353E1,2.9070713E1,5.9052578E1,1.3190329E1,5.2342594E1,1.769248E1,1.0061052E1,2.4177086E1,4.893628E0,3.9307217E1,1.9745361E1,7.7856026E0,5.4047265E0,5.1126E1,1.2165966E0,1.2852257E1,4.8402233E0,4.664618E0,5.396434E0,8.057378E0,1.6119707E1,1.3039117E1,2.62681E1,1.2283056E1,7.462305E0,3.6099038E0,4.1756988E0,3.2139392E0,2.1907873E0,3.486101E1,1.6264986E1,3.630475E0,9.221782E0,3.238026E0,1.4265921E0,3.684592E0,1.7118421E0,1.1510601E0,6.9063177E0,5.3159714E0,1.0803737E1,6.403109E0,6.636008E0,2.1627071E1,4.6410294E0,1.1136475E1,1.1465816E0,1.6680396E0,5.7942653E0],"tree_param":{"num_deleted":"0","num_feature":"14","num_nodes":"53","size_leaf_vector":"1"}},{"base_weights":[3.7168146E-3,-6.219208E-1,3.104336E-1,-8.2560706E-1,-5.319636E-2,1.3463134E-1,6.886218E-1,-1.2818368E-1,-8.7823635E-1,-7.8122205E-1,6.55285E-1,-2.0238845E-1,2.587277E-1,8.1161934E-1,-4.2595223E-1,5.3420304E-3,-1.317897E-2,-1.0512576E0,-5.6489795E-1,6.6325106E-2,-5.8850188E-2,9.331141E-1,-1.2246566E-2,1.3974945E-1,-8.371221E-1,5.028668E-2,9.862252E-1,6.462687E-1,1.0596238E0,-4.1235406E-2,1.680593E-2,-5.858348E-2,-1.6572382E-2,-3.3628006E-2,1.7398877E-2,4.0288456E-2,-3.1275146E-2,6.112485E-2,-6.694226E-3,-1.4608241E-2,3.0889595E-2,-6.160728E-2,-2.554637E-2,-1.6199881E-3,3.3413097E-2,6.331012E-2,6.6799633E-3,5.6730755E-2,2.1443337E-2,1.6993905E-3,5.9840705E-2],"categories":[],"categories_nodes":[],"categories_segments":[],"categories_sizes":[],"default_left":[0,0,0,0,0,0,0,0,0,0,0,0,0,0,0,0,0,0,0,0,0,0,0,0,0,0,0,0,0,0,0,0,0,0,0,0,0,0,0,0,0,0,0,0,0,0,0,0,0,0,0],"id":19,"left_children":[1,3,5,7,9,11,13,15,17,19,21,23,25,27,29,-1,-1,31,33,35,-1,37,-1,39,41,43,45,47,49,-1,-1,-1,-1,-1,-1,-1,-1,-1,-1,-1,-1,-1,-1,-1,-1,-1,-1,-1,-1,-1,-1],"loss_changes":[3.3922047E1,6.6929264E0,7.793462E0,1.4565983E0,8.973328E0,3.4908733E0,5.4725323E0,1.6087598E-1,1.5519676E0,2.9450684E0,2.4439318E0,5.0438795E0,9.129002E0,7.1048164E-1,1.6059508E0,0E0,0E0,1.7211514E0,1.830348E0,2.3801053E0,0E0,2.3178678E0,0E0,3.4011087E0,4.1276455E-1,2.4795873E0,3.0359564E0,1.9528875E0,1.6544504E0,0E0,0E0,0E0,0E0,0E0,0E0,0E0,0E0,0E0,0E0,0E0,0E0,0E0,0E0,0E0,0E0,0E0,0E0,0E0,0E0,0E0,0E0],"parents":[2147483647,0,0,1,1,2,2,3,3,4,4,5,5,6,6,7,7,8,8,9,9,10,10,11,11,12,12,13,13,14,14,17,17,18,18,19,19,21,21,23,23,24,24,25,25,26,26,27,27,28,28],"right_children":[2,4,6,8,10,12,14,16,18,20,22,24,26,28,30,-1,-1,32,34,36,-1,38,-1,40,42,44,46,48,50,-1,-1,-1,-1,-1,-1,-1,-1,-1,-1,-1,-1,-1,-1,-1,-1,-1,-1,-1,-1,-1,-1],"split_conditions":[-1.1363637E-1,6E0,3.693007E-1,0E0,-3.4833333E0,1E0,1.157563E1,6.666667E-2,1.1875E0,-5.050505E-1,5.833333E-1,1.4705129E1,1.8753247E-1,6E0,7E0,5.3420304E-3,-1.317897E-2,-1.6363636E0,3.75E-1,7E0,-5.8850188E-2,1.1875E0,-1.2246566E-2,2.3636363E-1,3.519487E-1,2.9816994E-1,4.7384615E0,1E0,-3.846154E-2,-4.1235406E-2,1.680593E-2,-5.858348E-2,-1.6572382E-2,-3.3628006E-2,1.7398877E-2,4.0288456E-2,-3.1275146E-2,6.112485E-2,-6.694226E-3,-1.4608241E-2,3.0889595E-2,-6.160728E-2,-2.554637E-2,-1.6199881E-3,3.3413097E-2,6.331012E-2,6.6799633E-3,5.6730755E-2,2.1443337E-2,1.6993905E-3,5.9840705E-2],"split_indices":[4,13,4,11,1,13,1,12,9,9,12,5,10,13,6,0,0,6,1,13,0,9,0,1,4,4,1,13,8,0,0,0,0,0,0,0,0,0,0,0,0,0,0,0,0,0,0,0,0,0,0],"split_type":[0,0,0,0,0,0,0,0,0,0,0,0,0,0,0,0,0,0,0,0,0,0,0,0,0,0,0,0,0,0,0,0,0,0,0,0,0,0,0,0,0,0,0,0,0,0,0,0,0,0,0],"sum_hessian":[1.7476921E2,5.715578E1,1.1761343E2,4.1751118E1,1.5404664E1,8.12159E1,3.6397533E1,3.1706367E0,3.858048E1,7.546901E0,7.857763E0,2.1687172E1,5.9528725E1,3.3024918E1,3.3726137E0,1.236018E0,1.9346187E0,2.3338339E1,1.5242142E1,2.6673408E0,4.8795605E0,5.97667E0,1.881093E0,1.4598196E1,7.088977E0,4.710222E1,1.2426505E1,2.1977718E1,1.1047201E1,2.160127E0,1.2124867E0,1.945594E1,3.8823977E0,1.3869644E1,1.3724984E0,1.2096932E0,1.4576476E0,4.5869102E0,1.3897597E0,7.87338E0,6.724816E0,1.9500834E0,5.1388936E0,4.237934E1,4.7228775E0,8.989542E0,3.4369626E0,5.4704876E0,1.650723E1,1.4505578E0,9.596643E0],"tree_param":{"num_deleted":"0","num_feature":"14","num_nodes":"51","size_leaf_vector":"1"}},{"base_weights":[3.360779E-2,-6.594533E-1,3.3680347E-1,-8.0670655E-1,-1.5326858E-1,1.6235757E-1,7.1138966E-1,-3.4399778E-1,-1.0291349E0,-9.205002E-1,3.43236E-1,6.245412E-1,6.822969E-2,1.0492462E0,3.3098763E-1,5.1680323E-2,-9.0893835E-1,-1.0979185E0,5.471912E-3,-5.160124E-2,-1.2304975E-2,9.227093E-1,-2.7443597E-1,8.214367E-1,-2.4391888E-2,3.9950994E-1,-6.2064208E-2,3.4565017E-1,1.1329157E0,-7.02458E-2,6.504695E-1,-2.107404E-2,1.7414933E-2,-1.0899833E-2,-5.628972E-2,-5.8018666E-2,3.0887693E-3,6.0241807E-2,8.836964E-3,-4.696336E-2,1.7190678E-2,-1.7033381E-2,5.619297E-2,-1.2105274E-2,4.1272298E-2,-3.1768396E-2,1.5266052E-3,3.675063E-2,-1.1722056E-2,5.9280414E-2,2.3469036E-2,1.2585877E-2,-1.3570406E-2,2.3711792E-3,4.0213346E-2],"categories":[],"categories_nodes":[],"categories_segments":[],"categories_sizes":[],"default_left":[0,0,0,0,0,0,0,0,0,0,0,0,0,0,0,0,0,0,0,0,0,0,0,0,0,0,0,0,0,0,0,0,0,0,0,0,0,0,0,0,0,0,0,0,0,0,0,0,0,0,0,0,0,0,0],"id":20,"left_children":[1,3,5,7,9,11,13,15,17,19,21,23,25,27,29,31,33,35,-1,-1,-1,37,39,41,-1,43,45,47,49,51,53,-1,-1,-1,-1,-1,-1,-1,-1,-1,-1,-1,-1,-1,-1,-1,-1,-1,-1,-1,-1,-1,-1,-1,-1],"loss_changes":[3.40391E1,3.5521717E0,7.243411E0,3.5535564E0,5.019641E0,3.3563836E0,4.2134476E0,3.1380296E0,2.0889397E0,1.3132286E-1,3.1971202E0,3.2692509E0,2.875032E0,6.876812E-1,2.3726597E0,1.420954E0,6.1606693E-1,1.7953072E0,0E0,0E0,0E0,7.284193E-1,2.2761512E0,4.424487E0,0E0,5.3306403E0,2.5812497E0,9.3743545E-1,1.0166168E-3,6.47946E-1,9.0820074E-1,0E0,0E0,0E0,0E0,0E0,0E0,0E0,0E0,0E0,0E0,0E0,0E0,0E0,0E0,0E0,0E0,0E0,0E0,0E0,0E0,0E0,0E0,0E0,0E0],"parents":[2147483647,0,0,1,1,2,2,3,3,4,4,5,5,6,6,7,7,8,8,9,9,10,10,11,11,12,12,13,13,14,14,15,15,16,16,17,17,21,21,22,22,23,23,25,25,26,26,27,27,28,28,29,29,30,30],"right_children":[2,4,6,8,10,12,14,16,18,20,22,24,26,28,30,32,34,36,-1,-1,-1,38,40,42,-1,44,46,48,50,52,54,-1,-1,-1,-1,-1,-1,-1,-1,-1,-1,-1,-1,-1,-1,-1,-1,-1,-1,-1,-1,-1,-1,-1,-1],"split_conditions":[-8.866667E-2,6E0,2.382906E-1,1E0,-2.56E-1,-5E-1,2.7552447E0,-2.4651281E1,3.1714287E0,-4.8148352E-1,-1.8933333E-1,8.659091E0,-3.8848486E0,2E0,4.4133332E-1,2.3809524E-2,-9.1764706E-1,2.802139E0,5.471912E-3,-5.160124E-2,-1.2304975E-2,7E0,-1.26E1,-1.2180921E1,-2.4391888E-2,2E0,-1.4E0,5.996429E-1,1.8181819E0,-1.5E-1,-1.0210526E1,-2.107404E-2,1.7414933E-2,-1.0899833E-2,-5.628972E-2,-5.8018666E-2,3.0887693E-3,6.0241807E-2,8.836964E-3,-4.696336E-2,1.7190678E-2,-1.7033381E-2,5.619297E-2,-1.2105274E-2,4.1272298E-2,-3.1768396E-2,1.5266052E-3,3.675063E-2,-1.1722056E-2,5.9280414E-2,2.3469036E-2,1.2585877E-2,-1.3570406E-2,2.3711792E-3,4.0213346E-2],"split_indices":[10,13,10,13,10,12,7,0,3,4,10,5,2,13,4,12,8,9,0,0,0,13,5,0,0,13,3,4,7,12,2,0,0,0,0,0,0,0,0,0,0,0,0,0,0,0,0,0,0,0,0,0,0,0,0],"split_type":[0,0,0,0,0,0,0,0,0,0,0,0,0,0,0,0,0,0,0,0,0,0,0,0,0,0,0,0,0,0,0,0,0,0,0,0,0,0,0,0,0,0,0,0,0,0,0,0,0,0,0,0,0,0,0],"sum_hessian":[1.599313E2,4.8315075E1,1.1161622E2,3.696729E1,1.1347789E1,7.712999E1,3.4486233E1,1.2828085E1,2.4139204E1,4.1228805E0,7.2249084E0,1.2096942E1,6.503304E1,1.7333298E1,1.7152935E1,8.078508E0,4.7495766E0,2.2797653E1,1.3415496E0,3.082799E0,1.0400813E0,3.4729168E0,3.7519913E0,1.0499958E1,1.5969841E0,1.7774378E1,4.725867E1,2.3874915E0,1.4945806E1,7.949447E0,9.203488E0,2.9506779E0,5.12783E0,1.6136053E0,3.1359713E0,2.1632082E1,1.1655725E0,2.073565E0,1.3993518E0,1.5576955E0,2.194296E0,2.1421125E0,8.357845E0,7.2638917E0,1.0510486E1,5.7564297E0,4.150224E1,1.2687987E0,1.1186928E0,1.3117329E1,1.8284777E0,2.9602334E0,4.989214E0,2.136101E0,7.067387E0],"tree_param":{"num_deleted":"0","num_feature":"14","num_nodes":"55","size_leaf_vector":"1"}},{"base_weights":[7.826002E-2,-4.393367E-1,3.871595E-1,-6.0595053E-1,-8.1781656E-2,1.8884143E-1,6.847436E-1,4.6606515E-2,-8.404808E-1,-6.369658E-1,6.680721E-1,1.0164843E0,1.1103458E-1,8.9239275E-1,2.983892E-1,1.7970784E-1,-3.4747627E-2,-2.6547402E-1,-9.93203E-1,1.4511514E-1,-5.9067454E-2,-3.5389032E-2,9.10854E-1,1.3931896E-2,5.6518544E-2,-4.094262E-1,2.0032212E-1,-9.258586E-3,9.4459033E-1,-1.9064897E-1,5.7952523E-1,-4.1448773E-4,4.9228128E-2,2.431377E-3,-4.2400338E-2,-1.6935794E-2,-5.4842927E-2,2.5200495E-2,-3.0935217E-2,5.7789177E-2,2.9379833E-3,2.4319107E-2,-3.0131875E-2,-2.6588371E-2,1.4355421E-2,5.0532192E-2,8.682973E-3,-1.7891727E-2,1.709029E-2,5.10363E-2,1.2147854E-2],"categories":[],"categories_nodes":[],"categories_segments":[],"categories_sizes":[],"default_left":[0,0,0,0,0,0,0,0,0,0,0,0,0,0,0,0,0,0,0,0,0,0,0,0,0,0,0,0,0,0,0,0,0,0,0,0,0,0,0,0,0,0,0,0,0,0,0,0,0,0,0],"id":21,"left_children":[1,3,5,7,9,11,13,15,17,19,21,23,25,27,29,31,-1,33,35,37,-1,-1,39,-1,-1,41,43,-1,45,47,49,-1,-1,-1,-1,-1,-1,-1,-1,-1,-1,-1,-1,-1,-1,-1,-1,-1,-1,-1,-1],"loss_changes":[2.7458176E1,3.7784472E0,6.209997E0,6.7235146E0,9.409791E0,4.12697E0,3.1494598E0,1.358135E0,2.5623703E0,5.6687036E0,3.8744135E0,1.5015364E-1,2.9308848E0,1.7042656E0,2.3633356E0,1.7312528E0,0E0,1.526696E0,1.3287697E0,2.0086136E0,0E0,0E0,1.738606E0,0E0,0E0,1.9037246E0,3.5199897E0,0E0,1.1534729E0,7.2174686E-1,1.3337922E0,0E0,0E0,0E0,0E0,0E0,0E0,0E0,0E0,0E0,0E0,0E0,0E0,0E0,0E0,0E0,0E0,0E0,0E0,0E0,0E0],"parents":[2147483647,0,0,1,1,2,2,3,3,4,4,5,5,6,6,7,7,8,8,9,9,10,10,11,11,12,12,13,13,14,14,15,15,17,17,18,18,19,19,22,22,25,25,26,26,28,28,29,29,30,30],"right_children":[2,4,6,8,10,12,14,16,18,20,22,24,26,28,30,32,-1,34,36,38,-1,-1,40,-1,-1,42,44,-1,46,48,50,-1,-1,-1,-1,-1,-1,-1,-1,-1,-1,-1,-1,-1,-1,-1,-1,-1,-1,-1,-1],"split_conditions":[-7.722222E-2,4.5604396E-1,8.3529415E0,1E0,5E0,-5.955357E0,4.3636365E0,-1.6160991E0,2.6666668E-1,3.5252526E0,-2.30625E1,-9.788889E0,-2.0396826E0,-7.762238E-1,4.4475527E0,-1.9285715E0,-3.4747627E-2,7E0,-4.3896103E0,-1.5555556E0,-5.9067454E-2,-3.5389032E-2,-8E-1,1.3931896E-2,5.6518544E-2,-2.1085527E0,-3.3846154E0,-9.258586E-3,7.503836E0,1E0,3E0,-4.1448773E-4,4.9228128E-2,2.431377E-3,-4.2400338E-2,-1.6935794E-2,-5.4842927E-2,2.5200495E-2,-3.0935217E-2,5.7789177E-2,2.9379833E-3,2.4319107E-2,-3.0131875E-2,-2.6588371E-2,1.4355421E-2,5.0532192E-2,8.682973E-3,-1.7891727E-2,1.709029E-2,5.10363E-2,1.2147854E-2],"split_indices":[4,3,6,13,13,7,7,3,2,2,0,7,7,3,7,3,0,13,3,6,0,0,6,0,0,1,1,0,3,13,13,0,0,0,0,0,0,0,0,0,0,0,0,0,0,0,0,0,0,0,0],"split_type":[0,0,0,0,0,0,0,0,0,0,0,0,0,0,0,0,0,0,0,0,0,0,0,0,0,0,0,0,0,0,0,0,0,0,0,0,0,0,0,0,0,0,0,0,0,0,0,0,0,0,0],"sum_hessian":[1.696728E2,6.3256676E1,1.0641612E2,4.2675842E1,2.0580837E1,6.4839745E1,4.1576374E1,1.1494585E1,3.1181255E1,1.1911919E1,8.668918E0,4.5350933E0,6.0304653E1,2.6190376E1,1.5385999E1,1.0387763E1,1.1068221E0,7.1183987E0,2.4062857E1,5.189674E0,6.7222443E0,1.012988E0,7.65593E0,1.0672486E0,3.4678447E0,8.305583E0,5.1999073E1,1.0923538E0,2.5098022E1,5.733827E0,9.652171E0,9.223129E0,1.1646341E0,5.2201943E0,1.8982041E0,3.873438E0,2.0189419E1,3.762118E0,1.427556E0,5.6697803E0,1.9861493E0,1.2043504E0,7.1012325E0,4.967574E0,4.7031498E1,2.2830927E1,2.267097E0,4.613261E0,1.1205657E0,3.297195E0,6.3549767E0],"tree_param":{"num_deleted":"0","num_feature":"14","num_nodes":"51","size_leaf_vector":"1"}},{"base_weights":[3.0308334E-2,4.0193737E-1,-4.1391534E-1,-1.3594773E-1,5.132352E-1,-6.54632E-1,-8.2775936E-2,2.4436276E-2,-2.596871E-1,1.1980638E-1,6.9406474E-1,-8.467016E-1,-7.28748E-2,6.9465864E-1,-2.2630636E-1,-4.917139E-2,-6.861156E-2,5.5560845E-1,-2.8175768E-1,9.14364E-1,2.0286761E-1,1.6644174E-2,-9.136526E-1,-6.7734236E-1,4.417874E-1,1.0622075E0,-1.3632092E-2,-5.7506454E-1,5.125539E-2,1.12176705E-2,-1.9243732E-2,1.1813668E-2,5.326229E-2,-5.4899207E-3,-4.275321E-2,5.5210005E-2,1.0247266E-2,-2.2688486E-2,2.147696E-2,-2.7940303E-2,-5.6586683E-2,2.0501098E-2,-5.178657E-2,-2.9547278E-2,4.018197E-2,6.071381E-2,1.5090123E-2,-5.278321E-3,-4.6971846E-2,2.5591234E-2,-1.997344E-2],"categories":[],"categories_nodes":[],"categories_segments":[],"categories_sizes":[],"default_left":[0,0,0,0,0,0,0,0,0,0,0,0,0,0,0,0,0,0,0,0,0,0,0,0,0,0,0,0,0,0,0,0,0,0,0,0,0,0,0,0,0,0,0,0,0,0,0,0,0,0,0],"id":22,"left_children":[1,3,5,7,9,11,13,-1,15,17,19,21,23,25,27,-1,29,31,33,35,37,-1,39,41,43,45,-1,47,49,-1,-1,-1,-1,-1,-1,-1,-1,-1,-1,-1,-1,-1,-1,-1,-1,-1,-1,-1,-1,-1,-1],"loss_changes":[2.7900494E1,5.5762224E0,6.084914E0,1.4069469E0,5.3536625E0,4.9053726E0,3.902499E0,0E0,1.9342662E0,4.579352E0,5.4574146E0,2.935976E0,4.0721345E0,2.2367184E0,2.8452182E0,0E0,1.2469943E0,1.7754991E0,1.2682302E0,4.583704E0,2.7894309E0,0E0,1.8286152E0,2.751967E0,3.1489668E0,1.1605883E-1,0E0,2.1200452E0,3.7574096E0,0E0,0E0,0E0,0E0,0E0,0E0,0E0,0E0,0E0,0E0,0E0,0E0,0E0,0E0,0E0,0E0,0E0,0E0,0E0,0E0,0E0,0E0],"parents":[2147483647,0,0,1,1,2,2,3,3,4,4,5,5,6,6,8,8,9,9,10,10,11,11,12,12,13,13,14,14,16,16,17,17,18,18,19,19,20,20,22,22,23,23,24,24,25,25,27,27,28,28],"right_children":[2,4,6,8,10,12,14,-1,16,18,20,22,24,26,28,-1,30,32,34,36,38,-1,40,42,44,46,-1,48,50,-1,-1,-1,-1,-1,-1,-1,-1,-1,-1,-1,-1,-1,-1,-1,-1,-1,-1,-1,-1,-1,-1],"split_conditions":[-6.168831E-1,-3.1666667E0,1.4619882E-1,-5.8102565E0,2E0,6E0,-6.75E-1,2.4436276E-2,-8.75E-1,1.1048951E0,-3.0871794E0,-9.478633E0,-3.4833333E0,1.2638888E0,3.7045453E-2,-4.917139E-2,-1.3076923E0,3.2192514E0,7.196429E0,4.733333E0,-2.5705128E0,1.6644174E-2,1E0,2.2102563E0,2.3333333E0,6.643357E0,-1.3632092E-2,-3.6934524E0,5E0,1.12176705E-2,-1.9243732E-2,1.1813668E-2,5.326229E-2,-5.4899207E-3,-4.275321E-2,5.5210005E-2,1.0247266E-2,-2.2688486E-2,2.147696E-2,-2.7940303E-2,-5.6586683E-2,2.0501098E-2,-5.178657E-2,-2.9547278E-2,4.018197E-2,6.071381E-2,1.5090123E-2,-5.278321E-3,-4.6971846E-2,2.5591234E-2,-1.997344E-2],"split_indices":[2,1,1,7,13,13,12,0,12,8,2,7,1,8,10,0,8,1,1,7,2,0,13,2,2,2,0,6,13,0,0,0,0,0,0,0,0,0,0,0,0,0,0,0,0,0,0,0,0,0,0],"split_type":[0,0,0,0,0,0,0,0,0,0,0,0,0,0,0,0,0,0,0,0,0,0,0,0,0,0,0,0,0,0,0,0,0,0,0,0,0,0,0,0,0,0,0,0,0,0,0,0,0,0,0],"sum_hessian":[1.6699762E2,9.098037E1,7.601724E1,1.5559978E1,7.5420395E1,4.345292E1,3.2564327E1,2.0849402E0,1.3475038E1,2.427282E1,5.1147575E1,3.2325195E1,1.1127724E1,4.4766564E0,2.8087671E1,1.9483671E0,1.152667E1,1.1456216E1,1.2816603E1,3.4716095E1,1.643148E1,1.5228364E0,3.0802359E1,4.9720225E0,6.155701E0,3.1729162E0,1.30374E0,1.1972412E1,1.611526E1,6.1345997E0,5.392071E0,7.9428763E0,3.5133395E0,1.077595E1,2.0406528E0,2.6948385E1,7.767711E0,3.959488E0,1.2471992E1,1.3080709E1,1.772165E1,1.1968055E0,3.775217E0,1.4329418E0,4.7227592E0,2.1467247E0,1.0261916E0,5.79509E0,6.1773224E0,7.903532E0,8.211728E0],"tree_param":{"num_deleted":"0","num_feature":"14","num_nodes":"51","size_leaf_vector":"1"}},{"base_weights":[3.700523E-2,-3.879559E-1,4.3709692E-1,2.3163739E-1,-5.101527E-1,2.6881465E-1,6.6825104E-1,-3.621698E-1,5.9244E-1,2.1373802E-1,-6.6233E-1,3.897819E-1,-2.707641E-1,9.1852015E-1,3.7462485E-1,-1.1719112E-2,-6.166723E-1,-7.965452E-2,9.562687E-1,5.4661334E-1,-7.0355125E-2,6.1642215E-2,-7.6558536E-1,3.0009845E-2,5.024107E-1,1.5969896E-1,-8.3547586E-1,1.0016384E0,-7.8248875E-3,6.558543E-1,1.1268305E-2,-7.474775E-3,7.692897E-3,-5.624316E-3,-3.9606556E-2,-2.4839891E-2,2.046053E-2,-1.0697963E-2,6.500428E-2,3.9984997E-2,-7.2714128E-3,1.1758138E-2,-2.3550736E-2,-1.2412621E-2,3.416419E-2,-1.5474937E-2,-4.382357E-2,-1.2287911E-2,1.689946E-2,2.0495052E-2,4.6166103E-2,-3.2607775E-2,3.1099329E-2,-9.439969E-3,-6.087294E-2,1.7770475E-2,5.7310212E-2,1.3689729E-2,5.1643576E-2,-1.9957334E-2,2.8486151E-2],"categories":[],"categories_nodes":[],"categories_segments":[],"categories_sizes":[],"default_left":[0,0,0,0,0,0,0,0,0,0,0,0,0,0,0,0,0,0,0,0,0,0,0,0,0,0,0,0,0,0,0,0,0,0,0,0,0,0,0,0,0,0,0,0,0,0,0,0,0,0,0,0,0,0,0,0,0,0,0,0,0],"id":23,"left_children":[1,3,5,7,9,11,13,15,17,19,21,23,25,27,29,31,33,35,37,39,41,43,45,47,49,51,53,55,-1,57,59,-1,-1,-1,-1,-1,-1,-1,-1,-1,-1,-1,-1,-1,-1,-1,-1,-1,-1,-1,-1,-1,-1,-1,-1,-1,-1,-1,-1,-1,-1],"loss_changes":[2.8326788E1,6.2385826E0,3.1567478E0,3.2149503E0,7.6140785E0,3.4544942E0,2.261835E0,5.202157E-1,2.2990863E0,1.2242424E0,4.2554264E0,1.6998363E0,2.5609636E0,1.8058281E0,1.8326108E0,1.03010245E-1,2.1224153E-1,1.0426286E0,2.6820931E0,1.1475322E0,1.0473377E0,1.7015669E0,2.2241478E0,1.0303681E0,8.741026E-1,2.8474889E0,8.7680054E-1,1.2056828E0,0E0,1.1767592E0,2.2612002E0,0E0,0E0,0E0,0E0,0E0,0E0,0E0,0E0,0E0,0E0,0E0,0E0,0E0,0E0,0E0,0E0,0E0,0E0,0E0,0E0,0E0,0E0,0E0,0E0,0E0,0E0,0E0,0E0,0E0,0E0],"parents":[2147483647,0,0,1,1,2,2,3,3,4,4,5,5,6,6,7,7,8,8,9,9,10,10,11,11,12,12,13,13,14,14,15,15,16,16,17,17,18,18,19,19,20,20,21,21,22,22,23,23,24,24,25,25,26,26,27,27,29,29,30,30],"right_children":[2,4,6,8,10,12,14,16,18,20,22,24,26,28,30,32,34,36,38,40,42,44,46,48,50,52,54,56,-1,58,60,-1,-1,-1,-1,-1,-1,-1,-1,-1,-1,-1,-1,-1,-1,-1,-1,-1,-1,-1,-1,-1,-1,-1,-1,-1,-1,-1,-1,-1,-1],"split_conditions":[3.7045453E-2,-7.8571427E-1,2.382906E-1,-2.9307693E-1,-2.195804E0,2.375238E1,2.9444444E0,-3.3333333E0,-1.9111111E0,6.666667E-2,-6.6239314E0,-1.0683761E0,2.9230769E0,1.2E0,3E0,-2.25E0,-3.7333333E0,-3.1794873E-1,-7.5555557E-1,7E0,4E0,6E0,1E0,2E0,1.8753247E-1,1E0,4E0,-7.5104895E0,-7.8248875E-3,3.693007E-1,6E0,-7.474775E-3,7.692897E-3,-5.624316E-3,-3.9606556E-2,-2.4839891E-2,2.046053E-2,-1.0697963E-2,6.500428E-2,3.9984997E-2,-7.2714128E-3,1.1758138E-2,-2.3550736E-2,-1.2412621E-2,3.416419E-2,-1.5474937E-2,-4.382357E-2,-1.2287911E-2,1.689946E-2,2.0495052E-2,4.6166103E-2,-3.2607775E-2,3.1099329E-2,-9.439969E-3,-6.087294E-2,1.7770475E-2,5.7310212E-2,1.3689729E-2,5.1643576E-2,-1.9957334E-2,2.8486151E-2],"split_indices":[10,12,10,4,2,0,7,3,7,12,7,3,7,12,13,12,7,9,8,13,13,13,13,13,10,13,13,2,0,4,13,0,0,0,0,0,0,0,0,0,0,0,0,0,0,0,0,0,0,0,0,0,0,0,0,0,0,0,0,0,0],"split_type":[0,0,0,0,0,0,0,0,0,0,0,0,0,0,0,0,0,0,0,0,0,0,0,0,0,0,0,0,0,0,0,0,0,0,0,0,0,0,0,0,0,0,0,0,0,0,0,0,0,0,0,0,0,0,0,0,0,0,0,0,0],"sum_hessian":[1.6460785E2,7.983776E1,8.4770096E1,1.3004321E1,6.683344E1,5.0308197E1,3.4461895E1,4.9136577E0,8.090663E0,1.1539026E1,5.5294415E1,4.1321926E1,8.986274E0,1.7455605E1,1.7006292E1,2.507235E0,2.4064229E0,3.115858E0,4.9748054E0,4.887832E0,6.6511946E0,6.9522076E0,4.8342205E1,1.015383E1,3.1168095E1,5.5062356E0,3.480038E0,1.6266193E1,1.1894109E0,9.132761E0,7.8735313E0,1.4215173E0,1.0857177E0,1.0449183E0,1.3615046E0,1.6725026E0,1.4433553E0,1.2154721E0,3.7593331E0,3.4650586E0,1.4227737E0,4.008003E0,2.643191E0,5.0402446E0,1.9119627E0,1.0196016E1,3.814619E1,5.4636493E0,4.6901803E0,2.7170328E1,3.9977667E0,1.8487709E0,3.6574647E0,1.8471588E0,1.6328791E0,3.6058798E0,1.2660314E1,5.393419E0,3.7393425E0,4.7027154E0,3.1708157E0],"tree_param":{"num_deleted":"0","num_feature":"14","num_nodes":"61","size_leaf_vector":"1"}},{"base_weights":[-3.8251642E-2,-4.073549E-1,3.244192E-1,1.3391912E-1,-5.2359957E-1,1.4030664E-1,5.9273964E-1,-5.1788944E-1,5.528781E-1,1.0807151E-1,-6.5963876E-1,2.2660093E-1,-5.0755795E-2,1.3051657E-1,7.810944E-1,1.4624335E-2,-7.497309E-1,-1.02965154E-1,1.0133083E0,4.9584102E-2,-6.739365E-2,-5.698536E-1,-6.505396E-2,1.6262087E-1,5.587865E-2,4.150701E-2,-3.6470363E-1,1.8428405E-1,8.4194034E-1,-7.0922645E-3,-5.49424E-2,2.6714906E-2,-3.552012E-2,7.354729E-3,6.039345E-2,-1.0258078E-2,3.5174068E-2,-3.3105504E-2,-7.800959E-3,1.6604818E-2,-8.628574E-3,2.746143E-2,-4.1101445E-2,-5.956825E-3,1.9005865E-2,4.9337614E-2,1.6725572E-2],"categories":[],"categories_nodes":[],"categories_segments":[],"categories_sizes":[],"default_left":[0,0,0,0,0,0,0,0,0,0,0,0,0,0,0,0,0,0,0,0,0,0,0,0,0,0,0,0,0,0,0,0,0,0,0,0,0,0,0,0,0,0,0,0,0,0,0],"id":24,"left_children":[1,3,5,7,9,11,13,15,17,19,21,23,-1,25,27,-1,29,31,33,-1,35,37,-1,39,-1,-1,41,43,45,-1,-1,-1,-1,-1,-1,-1,-1,-1,-1,-1,-1,-1,-1,-1,-1,-1,-1],"loss_changes":[2.2421232E1,5.290286E0,4.093298E0,4.5092354E0,5.957712E0,5.3597775E0,2.8662758E0,1.4530686E0,3.0929396E0,2.0820305E0,2.512703E0,2.593841E0,0E0,4.1385894E0,7.1716595E-1,0E0,9.873235E-1,2.3111804E0,8.178468E-1,0E0,1.3954507E0,1.8569813E0,0E0,2.7044392E0,0E0,0E0,3.4513729E0,2.5341642E-1,1.251193E0,0E0,0E0,0E0,0E0,0E0,0E0,0E0,0E0,0E0,0E0,0E0,0E0,0E0,0E0,0E0,0E0,0E0,0E0],"parents":[2147483647,0,0,1,1,2,2,3,3,4,4,5,5,6,6,7,7,8,8,9,9,10,10,11,11,13,13,14,14,16,16,17,17,18,18,20,20,21,21,23,23,26,26,27,27,28,28],"right_children":[2,4,6,8,10,12,14,16,18,20,22,24,-1,26,28,-1,30,32,34,-1,36,38,-1,40,-1,-1,42,44,46,-1,-1,-1,-1,-1,-1,-1,-1,-1,-1,-1,-1,-1,-1,-1,-1,-1,-1],"split_conditions":[3.7045453E-2,-7.8571427E-1,2.382906E-1,-4.5664334E0,-2.195804E0,7.503836E0,3.4475524E0,-1.0779221E1,-9.625E-2,-4.5714286E-1,3.6363637E0,1.4666667E0,-5.0755795E-2,-1.5E-1,-1.0210526E1,1.4624335E-2,-1.976923E1,-1.7540442E1,-7.777778E-1,4.9584102E-2,3.0371323E-1,-1.1363637E-1,-6.505396E-2,-6.0606062E-2,5.587865E-2,4.150701E-2,3.2417583E1,-2.3333333E-1,4.8809522E-1,-7.0922645E-3,-5.49424E-2,2.6714906E-2,-3.552012E-2,7.354729E-3,6.039345E-2,-1.0258078E-2,3.5174068E-2,-3.3105504E-2,-7.800959E-3,1.6604818E-2,-8.628574E-3,2.746143E-2,-4.1101445E-2,-5.956825E-3,1.9005865E-2,4.9337614E-2,1.6725572E-2],"split_indices":[10,12,10,1,2,3,1,1,10,12,0,12,0,12,2,0,6,0,8,0,4,4,0,9,0,0,0,12,12,0,0,0,0,0,0,0,0,0,0,0,0,0,0,0,0,0,0],"split_type":[0,0,0,0,0,0,0,0,0,0,0,0,0,0,0,0,0,0,0,0,0,0,0,0,0,0,0,0,0,0,0,0,0,0,0,0,0,0,0,0,0,0,0,0,0,0,0],"sum_hessian":[1.6550665E2,8.196485E1,8.354181E1,1.4463927E1,6.750092E1,5.0448578E1,3.309323E1,5.566905E0,8.897022E0,1.199768E1,5.5503246E1,4.769062E1,2.7579582E0,1.00712595E1,2.302197E1,1.18017E0,4.386735E0,3.9899929E0,4.907029E0,1.2170594E0,1.0780621E1,5.0344677E1,5.1585674E0,4.559873E1,2.091891E0,3.8938737E0,6.1773853E0,2.5027122E0,2.0519258E1,2.1133132E0,2.273422E0,2.005952E0,1.984041E0,1.2220976E0,3.6849318E0,9.768661E0,1.0119596E0,4.067666E1,9.668019E0,3.0292084E1,1.53066435E1,1.9931858E0,4.1842E0,1.1353164E0,1.3673959E0,1.52286415E1,5.2906175E0],"tree_param":{"num_deleted":"0","num_feature":"14","num_nodes":"47","size_leaf_vector":"1"}},{"base_weights":[2.229115E-2,-5.271918E-1,2.3977813E-1,-8.656371E-1,-2.9068506E-1,8.415264E-2,6.09701E-1,-4.3720815E-1,-5.1948156E-2,-1.14725955E-1,-9.142999E-1,6.456596E-1,1.0749948E-3,4.0406904E-1,1.0513307E0,-3.9951038E-2,-2.0084012E-1,-3.3686614E-1,3.6711967E-1,-1.5661016E-2,-5.3823378E-2,-2.339017E-2,8.732795E-1,1.584466E-1,-1.9925335E-1,4.895511E-2,1.689784E-1,5.5307526E-2,1.6837854E-2,3.833752E-3,-2.6786676E-2,-1.5272372E-3,-4.323491E-2,-1.40499715E-2,3.7706133E-2,5.579563E-2,-2.3802087E-2,3.5280664E-2,3.0133598E-3,-2.4848057E-2,5.660307E-3,-6.6714897E-3,2.5561366E-2],"categories":[],"categories_nodes":[],"categories_segments":[],"categories_sizes":[],"default_left":[0,0,0,0,0,0,0,0,0,0,0,0,0,0,0,0,0,0,0,0,0,0,0,0,0,0,0,0,0,0,0,0,0,0,0,0,0,0,0,0,0,0,0],"id":25,"left_children":[1,3,5,7,9,11,13,15,-1,17,19,21,23,25,27,-1,29,31,33,-1,-1,-1,35,37,39,-1,41,-1,-1,-1,-1,-1,-1,-1,-1,-1,-1,-1,-1,-1,-1,-1,-1],"loss_changes":[1.9832079E1,3.5161457E0,6.7892447E0,9.460411E-1,3.100764E0,3.9549723E0,2.7559805E0,4.5168626E-1,0E0,2.6848967E0,2.755108E-1,3.1780424E0,2.3919075E0,3.2848034E0,3.893757E-2,0E0,5.6760126E-1,2.705979E0,2.2257795E0,0E0,0E0,0E0,3.6157475E0,2.2399194E0,3.1615188E0,0E0,2.0682926E0,0E0,0E0,0E0,0E0,0E0,0E0,0E0,0E0,0E0,0E0,0E0,0E0,0E0,0E0,0E0,0E0],"parents":[2147483647,0,0,1,1,2,2,3,3,4,4,5,5,6,6,7,7,9,9,10,10,11,11,12,12,13,13,14,14,16,16,17,17,18,18,22,22,23,23,24,24,26,26],"right_children":[2,4,6,8,10,12,14,16,-1,18,20,22,24,26,28,-1,30,32,34,-1,-1,-1,36,38,40,-1,42,-1,-1,-1,-1,-1,-1,-1,-1,-1,-1,-1,-1,-1,-1,-1,-1],"split_conditions":[-8.866667E-2,-2.56E-1,2.382906E-1,1E0,-5.6565654E-1,-6.75E-1,6E0,5.367647E0,-5.1948156E-2,4.406015E0,-1.5555556E-1,-5.019608E0,-6.168831E-1,3.2417583E1,-2.5705128E0,-3.9951038E-2,1.1363637E-1,-2.75E0,3E0,-1.5661016E-2,-5.3823378E-2,-2.339017E-2,1E1,-4.5714286E-1,1.5E-1,4.895511E-2,5.630769E-1,5.5307526E-2,1.6837854E-2,3.833752E-3,-2.6786676E-2,-1.5272372E-3,-4.323491E-2,-1.40499715E-2,3.7706133E-2,5.579563E-2,-2.3802087E-2,3.5280664E-2,3.0133598E-3,-2.4848057E-2,5.660307E-3,-6.6714897E-3,2.5561366E-2],"split_indices":[10,10,10,13,1,12,13,2,0,2,12,1,2,0,2,0,12,1,13,0,0,0,5,12,12,0,4,0,0,0,0,0,0,0,0,0,0,0,0,0,0,0,0],"split_type":[0,0,0,0,0,0,0,0,0,0,0,0,0,0,0,0,0,0,0,0,0,0,0,0,0,0,0,0,0,0,0,0,0,0,0,0,0,0,0,0,0,0,0],"sum_hessian":[1.6389355E2,4.607092E1,1.1782264E2,1.7857061E1,2.8213858E1,8.3796974E1,3.402566E1,6.158034E0,1.1699028E1,2.2928362E1,5.285495E0,9.927437E0,7.386954E1,2.4522451E1,9.503212E0,1.492709E0,4.6653247E0,1.5899342E1,7.029021E0,1.7458614E0,3.5396335E0,1.5058713E0,8.421565E0,4.1487408E1,3.238213E1,6.197803E0,1.8324648E1,8.317159E0,1.1860534E0,2.9728599E0,1.692465E0,1.0730111E1,5.1692305E0,2.7303596E0,4.298661E0,7.2846346E0,1.1369308E0,5.3704133E0,3.6116997E1,1.6280128E1,1.6102001E1,1.0052491E1,8.272156E0],"tree_param":{"num_deleted":"0","num_feature":"14","num_nodes":"43","size_leaf_vector":"1"}},{"base_weights":[4.049821E-3,-1.684598E-1,5.490515E-1,-7.1783245E-1,-7.454709E-2,3.2763317E-1,9.5235753E-1,-5.5731993E-2,-3.4485608E-1,4.8571834E-1,-1.4752196E-1,8.031351E-1,-7.668896E-2,1.1613202E-2,1.0468801E0,-4.255314E-2,4.1568544E-2,1.7616065E-1,9.34097E-1,-9.704859E-3,-3.957124E-1,1.033639E0,1.5322356E-1,4.645876E-1,-4.269268E-1,5.538478E-2,1.22430455E-2,1.6799655E-2,-3.6650904E-2,2.3889974E-2,-2.4129523E-2,5.305614E-2,1.1080066E-2,-2.981532E-2,4.0860455E-3,-3.4783956E-2,3.0323022E-4,1.5446658E-2,5.5288643E-2,1.49157E-2,6.083748E-4,4.1801527E-2,-1.3487242E-2,-4.6604004E-2,-6.6175335E-3],"categories":[],"categories_nodes":[],"categories_segments":[],"categories_sizes":[],"default_left":[0,0,0,0,0,0,0,0,0,0,0,0,0,0,0,0,0,0,0,0,0,0,0,0,0,0,0,0,0,0,0,0,0,0,0,0,0,0,0,0,0,0,0,0,0],"id":26,"left_children":[1,3,5,7,9,11,13,-1,15,17,19,21,23,-1,25,-1,27,29,31,33,35,37,39,41,43,-1,-1,-1,-1,-1,-1,-1,-1,-1,-1,-1,-1,-1,-1,-1,-1,-1,-1,-1,-1],"loss_changes":[1.5412888E1,6.3718247E0,3.2075195E0,2.2892895E0,4.465733E0,5.246424E0,6.719475E-1,0E0,2.1402164E0,1.586848E0,3.2748733E0,1.7112818E0,3.1344779E0,0E0,2.945299E-1,0E0,1.8553628E0,1.9587369E0,2.1024275E-1,3.409051E0,4.1257772E0,1.3090515E-1,8.727105E-2,2.0157716E0,1.3534658E0,0E0,0E0,0E0,0E0,0E0,0E0,0E0,0E0,0E0,0E0,0E0,0E0,0E0,0E0,0E0,0E0,0E0,0E0,0E0,0E0],"parents":[2147483647,0,0,1,1,2,2,3,3,4,4,5,5,6,6,8,8,9,9,10,10,11,11,12,12,14,14,16,16,17,17,18,18,19,19,20,20,21,21,22,22,23,23,24,24],"right_children":[2,4,6,8,10,12,14,-1,16,18,20,22,24,-1,26,-1,28,30,32,34,36,38,40,42,44,-1,-1,-1,-1,-1,-1,-1,-1,-1,-1,-1,-1,-1,-1,-1,-1,-1,-1,-1,-1],"split_conditions":[8.3529415E0,-2.4866667E-1,3.7727273E-1,1.1102941E0,-5.955357E0,-3.267974E-2,2.9807693E-1,-5.5731993E-2,-1.3333334E0,-1.10625E1,1.7583333E0,1.6666666E0,3.0506578E1,1.1613202E-2,1.157563E1,-4.255314E-2,-3.3333333E0,-2.1747475E1,6.7362638E0,-3.0125E0,3.1714287E0,1.3689543E1,-4.027778E-1,4.6068377E0,2.3809524E-2,5.538478E-2,1.22430455E-2,1.6799655E-2,-3.6650904E-2,2.3889974E-2,-2.4129523E-2,5.305614E-2,1.1080066E-2,-2.981532E-2,4.0860455E-3,-3.4783956E-2,3.0323022E-4,1.5446658E-2,5.5288643E-2,1.49157E-2,6.083748E-4,4.1801527E-2,-1.3487242E-2,-4.6604004E-2,-6.6175335E-3],"split_indices":[6,10,10,9,7,12,3,0,8,0,2,8,0,0,1,0,3,0,6,7,3,0,12,1,12,0,0,0,0,0,0,0,0,0,0,0,0,0,0,0,0,0,0,0,0],"split_type":[0,0,0,0,0,0,0,0,0,0,0,0,0,0,0,0,0,0,0,0,0,0,0,0,0,0,0,0,0,0,0,0,0,0,0,0,0,0,0,0,0,0,0,0,0],"sum_hessian":[1.6195164E2,1.23538765E2,3.8412876E1,1.706543E1,1.06473335E2,2.5968386E1,1.2444491E1,7.3050866E0,9.760343E0,1.1618234E1,9.48551E1,1.14804535E1,1.4487931E1,1.8451291E0,1.0599362E1,3.7047749E0,6.0555673E0,7.6970935E0,3.9211397E0,6.1656895E1,3.3198208E1,8.038878E0,3.4415755E0,5.563423E0,8.924508E0,9.498014E0,1.1013478E0,4.798037E0,1.2575305E0,5.4680085E0,2.2290847E0,2.9125738E0,1.0085659E0,7.5692353E0,5.4087658E1,1.8588518E1,1.4609691E1,1.2059424E0,6.8329363E0,1.1469549E0,2.2946205E0,3.6026342E0,1.9607892E0,2.490146E0,6.4343624E0],"tree_param":{"num_deleted":"0","num_feature":"14","num_nodes":"45","size_leaf_vector":"1"}},{"base_weights":[3.15683E-2,-4.4248033E-1,2.9436E-1,-8.8321996E-1,-3.0237213E-1,5.000134E-1,9.0294994E-2,-1.9699685E-2,-5.624792E-2,1.9784138E-1,-4.516644E-1,2.65668E-2,7.337607E-1,-4.6923347E-2,1.6465777E-1,-2.0516147E-1,5.127227E-1,-6.640391E-1,-7.7536635E-2,-6.314128E-2,1.9529885E-1,1.042759E0,4.0720776E-1,4.0179878E-1,-6.061628E-2,-3.0733874E-2,1.4886925E-2,4.3748613E-3,3.579745E-2,1.1078241E-2,-3.8941484E-2,-2.2467028E-2,3.606319E-2,3.719734E-2,-1.0885438E-2,2.9732114E-2,6.2514424E-2,-1.7393233E-4,4.2945024E-2,2.9879699E-2,-1.6609598E-2,-1.0166745E-2,2.9245323E-2],"categories":[],"categories_nodes":[],"categories_segments":[],"categories_sizes":[],"default_left":[0,0,0,0,0,0,0,0,0,0,0,0,0,0,0,0,0,0,0,0,0,0,0,0,0,0,0,0,0,0,0,0,0,0,0,0,0,0,0,0,0,0,0],"id":27,"left_children":[1,3,5,7,9,11,13,-1,-1,15,17,19,21,-1,23,25,27,29,31,-1,33,35,37,39,41,-1,-1,-1,-1,-1,-1,-1,-1,-1,-1,-1,-1,-1,-1,-1,-1,-1,-1],"loss_changes":[2.0051058E1,3.2793398E0,4.297494E0,1.1335287E0,3.457189E0,5.6597347E0,4.2213616E0,0E0,0E0,1.5088627E0,2.732356E0,4.1626697E0,3.038269E0,0E0,2.7182684E0,1.3293097E0,4.9866927E-1,2.4311733E0,4.428323E0,0E0,3.9648843E0,8.3678627E-1,3.4025407E0,3.7478645E0,2.5814817E0,0E0,0E0,0E0,0E0,0E0,0E0,0E0,0E0,0E0,0E0,0E0,0E0,0E0,0E0,0E0,0E0,0E0,0E0],"parents":[2147483647,0,0,1,1,2,2,3,3,4,4,5,5,6,6,9,9,10,10,11,11,12,12,14,14,15,15,16,16,17,17,18,18,20,20,21,21,22,22,23,23,24,24],"right_children":[2,4,6,8,10,12,14,-1,-1,16,18,20,22,-1,24,26,28,30,32,-1,34,36,38,40,42,-1,-1,-1,-1,-1,-1,-1,-1,-1,-1,-1,-1,-1,-1,-1,-1,-1,-1],"split_conditions":[-3.4102563E-2,-2.1517948E1,-3.8104575E0,1E0,-1.5809524E1,2E0,-3.3846154E0,-1.9699685E-2,-5.624792E-2,-2.8554623E1,5E0,2.8611112E0,3.7837103E-1,-4.6923347E-2,4E0,7.8571427E-1,1E0,-7.2727275E-1,5.7272725E0,-6.314128E-2,1.7777778E0,-7.5E-1,5.9615383E0,7.177778E0,1.8928571E-1,-3.0733874E-2,1.4886925E-2,4.3748613E-3,3.579745E-2,1.1078241E-2,-3.8941484E-2,-2.2467028E-2,3.606319E-2,3.719734E-2,-1.0885438E-2,2.9732114E-2,6.2514424E-2,-1.7393233E-4,4.2945024E-2,2.9879699E-2,-1.6609598E-2,-1.0166745E-2,2.9245323E-2],"split_indices":[10,5,2,13,5,13,1,0,0,0,13,5,4,0,13,9,13,9,2,0,8,8,1,6,10,0,0,0,0,0,0,0,0,0,0,0,0,0,0,0,0,0,0],"split_type":[0,0,0,0,0,0,0,0,0,0,0,0,0,0,0,0,0,0,0,0,0,0,0,0,0,0,0,0,0,0,0,0,0,0,0,0,0,0,0,0,0,0,0],"sum_hessian":[1.5890881E2,5.643045E1,1.0247837E2,1.2332416E1,4.4098034E1,5.0318222E1,5.216015E1,4.9481883E0,7.3842273E0,1.0061414E1,3.403662E1,1.6999672E1,3.331855E1,2.7328453E0,4.9427303E1,4.566016E0,5.495397E0,2.1217531E1,1.2819091E1,1.2168343E0,1.5782837E1,1.5992522E1,1.7326029E1,2.369768E1,2.5729624E1,2.3941622E0,2.171854E0,2.2396836E0,3.2557137E0,2.3278794E0,1.888965E1,9.046059E0,3.7730324E0,6.4342084E0,9.348628E0,6.2855434E0,9.706979E0,9.594684E0,7.731345E0,1.8854097E1,4.843582E0,2.163201E1,4.0976133E0],"tree_param":{"num_deleted":"0","num_feature":"14","num_nodes":"43","size_leaf_vector":"1"}},{"base_weights":[6.0915116E-2,-3.9961353E-1,3.1692532E-1,8.1471235E-2,-5.141814E-1,6.035663E-1,1.6467439E-1,-3.050259E-1,8.0404884E-1,-5.0310213E-2,-4.39831E-1,1.2557942E-1,8.0979025E-1,1.0581451E-1,5.56229E-2,2.022045E-2,-5.6965613E-1,1.8513947E-3,5.577866E-2,-1.2620996E-1,-6.478144E-1,4.9481053E-2,-2.3095925E-1,8.8317424E-1,-1.6117796E-2,-4.3189105E-2,1.477758E-1,-4.2575102E-2,-7.8029335E-3,-2.0679783E-2,1.140667E-2,-4.023466E-2,-1.0722234E-2,-2.6920695E-2,3.7770297E-2,5.3876724E-2,1.5307172E-2,3.5338156E-2,1.5309185E-3],"categories":[],"categories_nodes":[],"categories_segments":[],"categories_sizes":[],"default_left":[0,0,0,0,0,0,0,0,0,0,0,0,0,0,0,0,0,0,0,0,0,0,0,0,0,0,0,0,0,0,0,0,0,0,0,0,0,0,0],"id":28,"left_children":[1,3,5,7,9,11,13,15,17,-1,19,21,23,25,-1,-1,27,-1,-1,29,31,-1,33,35,-1,-1,37,-1,-1,-1,-1,-1,-1,-1,-1,-1,-1,-1,-1],"loss_changes":[1.910781E1,3.2366476E0,4.4406366E0,3.5998664E0,1.2750206E0,3.4186E0,3.7492685E0,1.8356993E0,1.0246305E0,0E0,2.6946335E0,3.9091663E0,2.3422318E0,2.82793E0,0E0,0E0,6.414943E-1,0E0,0E0,1.9491475E0,1.5509253E0,0E0,3.2174673E0,2.308504E0,0E0,0E0,4.2004967E0,0E0,0E0,0E0,0E0,0E0,0E0,0E0,0E0,0E0,0E0,0E0,0E0],"parents":[2147483647,0,0,1,1,2,2,3,3,4,4,5,5,6,6,7,7,8,8,10,10,11,11,12,12,13,13,16,16,19,19,20,20,22,22,23,23,26,26],"right_children":[2,4,6,8,10,12,14,16,18,-1,20,22,24,26,-1,-1,28,-1,-1,30,32,-1,34,36,-1,-1,38,-1,-1,-1,-1,-1,-1,-1,-1,-1,-1,-1,-1],"split_conditions":[-3.4102563E-2,-7.3333335E-1,-5.6E0,6E0,-3.0494118E1,2E0,2.695238E0,1.6E0,-9.803922E-2,-5.0310213E-2,-1.4125E1,-1.0024768E1,1E0,-5.1411767E0,5.56229E-2,2.022045E-2,1.2820513E0,1.8513947E-3,5.577866E-2,5.2095237E0,6E0,4.9481053E-2,2.3702614E1,2.7666666E1,-1.6117796E-2,-4.3189105E-2,5.035294E0,-4.2575102E-2,-7.8029335E-3,-2.0679783E-2,1.140667E-2,-4.023466E-2,-1.0722234E-2,-2.6920695E-2,3.7770297E-2,5.3876724E-2,1.5307172E-2,3.5338156E-2,1.5309185E-3],"split_indices":[10,12,2,13,5,13,8,2,9,0,5,2,11,1,0,0,9,0,0,2,13,0,5,5,0,0,0,0,0,0,0,0,0,0,0,0,0,0,0],"split_type":[0,0,0,0,0,0,0,0,0,0,0,0,0,0,0,0,0,0,0,0,0,0,0,0,0,0,0,0,0,0,0,0,0,0,0,0,0,0,0],"sum_hessian":[1.5999371E2,5.6963303E1,1.0303041E2,1.1011889E1,4.5951412E1,3.4712784E1,6.831763E1,7.5508857E0,3.4610038E0,4.3869524E0,4.156446E1,1.0947521E1,2.3765265E1,6.536964E1,2.9479842E0,1.9078947E0,5.642991E0,1.3228366E0,2.1381674E0,1.7214024E1,2.4350437E1,2.6791618E0,8.268359E0,2.2525131E1,1.2401326E0,1.899223E0,6.3470417E1,2.7263498E0,2.9166412E0,9.412731E0,7.801293E0,1.7249376E1,7.1010604E0,6.6497455E0,1.6186134E0,1.6200851E1,6.32428E0,1.012568E1,5.3344738E1],"tree_param":{"num_deleted":"0","num_feature":"14","num_nodes":"39","size_leaf_vector":"1"}},{"base_weights":[-1.7065022E-2,-2.8609034E-1,3.0056986E-1,-8.787071E-1,-1.666271E-1,1.0871589E-3,4.6238095E-1,3.825795E-3,-9.6928006E-1,-8.1317484E-2,-8.95622E-1,-2.0838758E-1,5.0089967E-2,7.1794224E-1,-1.617455E-1,-9.254148E-3,-5.3919937E-2,-1.7935476E-1,8.842498E-1,8.977083E-3,-1.2097617E0,8.625988E-2,-5.0451405E-2,2.8883858E-2,8.310416E-1,-3.96858E-1,4.3865092E-2,-1.8363148E-2,4.3694307E-3,5.2145887E-2,2.410569E-3,-6.6600226E-2,-1.947994E-2,3.2758586E-2,-1.0203443E-2,2.4458516E-2,-1.883848E-2,4.7154944E-2,1.378713E-2,1.7619481E-2,-3.5948556E-2],"categories":[],"categories_nodes":[],"categories_segments":[],"categories_sizes":[],"default_left":[0,0,0,0,0,0,0,0,0,0,0,0,0,0,0,0,0,0,0,0,0,0,0,0,0,0,0,0,0,0,0,0,0,0,0,0,0,0,0,0,0],"id":29,"left_children":[1,3,5,7,9,11,13,-1,15,17,19,21,-1,23,25,-1,-1,27,29,-1,31,33,-1,35,37,39,-1,-1,-1,-1,-1,-1,-1,-1,-1,-1,-1,-1,-1,-1,-1],"loss_changes":[1.3452533E1,5.8856606E0,3.4991655E0,1.2906303E0,4.4137874E0,5.7291713E0,7.5941467E0,0E0,9.056177E-1,6.376464E0,2.736207E0,5.419535E0,0E0,2.58259E0,3.874877E0,0E0,0E0,3.062653E0,7.7523327E-1,0E0,7.267952E-2,3.0150578E0,0E0,1.2582675E0,1.5255146E0,3.2607455E0,0E0,0E0,0E0,0E0,0E0,0E0,0E0,0E0,0E0,0E0,0E0,0E0,0E0,0E0,0E0],"parents":[2147483647,0,0,1,1,2,2,3,3,4,4,5,5,6,6,8,8,9,9,10,10,11,11,13,13,14,14,17,17,18,18,20,20,21,21,23,23,24,24,25,25],"right_children":[2,4,6,8,10,12,14,-1,16,18,20,22,-1,24,26,-1,-1,28,30,-1,32,34,-1,36,38,40,-1,-1,-1,-1,-1,-1,-1,-1,-1,-1,-1,-1,-1,-1,-1],"split_conditions":[4.8245616E0,-3.423077E1,2E0,-1.75E0,3.0857143E0,4.391667E0,4.391667E0,3.825795E-3,-3.5294118E0,1.5042017E0,-4.7777778E-1,2.8680556E0,5.0089967E-2,1.923077E-1,7E0,-9.254148E-3,-5.3919937E-2,5E0,6E-1,8.977083E-3,3.3504274E0,2.3809524E-2,-5.0451405E-2,6E0,-6.0606062E-2,4.8319325E0,4.3865092E-2,-1.8363148E-2,4.3694307E-3,5.2145887E-2,2.410569E-3,-6.6600226E-2,-1.947994E-2,3.2758586E-2,-1.0203443E-2,2.4458516E-2,-1.883848E-2,4.7154944E-2,1.378713E-2,1.7619481E-2,-3.5948556E-2],"split_indices":[6,0,13,12,6,7,7,0,7,6,12,7,0,4,13,0,0,13,12,0,3,12,0,13,9,1,0,0,0,